Weights from input to hidden layer (w):
{0.087037, -0.112401, 0.016701, 0.017029, -0.046322, -0.134747, 0.061019, -0.159590, -0.094520, -0.133729, 
-0.059639, -0.087708, 0.095305, 0.152305, -0.049648, 0.009390, -0.036762, -0.150876, -0.100526, -0.018193, 
-0.068734, -0.104179, 0.048493, 0.273459, -0.037453, -0.111714, 0.014192, 0.049559, -0.152161, -0.029385, 
0.021408, -0.138520, 0.023296, 0.047822, 0.008668, -0.122668, -0.240835, -0.006973, 0.228428, 0.018516, 
-0.025792, 0.006656, 0.145763, 0.023371, -0.021725, -0.030212, 0.223448, -0.044651, -0.056963, -0.060886, 
0.057739, 0.051855, -0.185388, -0.061791, 0.067146, -0.118533, -0.173038, -0.020835, 0.138251, 0.219424, 
-0.094001, -0.079672, 0.012636, 0.039139, -0.023017, 0.098663, 0.078859, -0.015431, -0.017470, -0.019351, 
0.062733, -0.086587, 0.082260, -0.089479, -0.006972, 0.125338, 0.019171, -0.003677, -0.214648, 0.145331, 
0.156597, 0.003330, 0.079361, -0.119140, 0.149398, -0.035233, -0.085579, 0.029428, -0.043363, 0.110659, 
0.162780, 0.082265, 0.130728, -0.028555, -0.103571, 0.053814, -0.125584, 0.015633, 0.178666, -0.093628, 
0.250284, 0.322314, 0.101637, 0.236663, 0.244885, 0.255474, 0.309995, 0.165863, 0.086435, 0.059291, 
-0.015284, -0.093245, -0.010295, 0.077925, -0.017070, -0.058777, -0.020955, 0.083436, -0.002275, -0.049121, 
0.006605, -0.061962, 0.016812, 0.045508, -0.137190, -0.070818, -0.086231, -0.284647, -0.054908, 0.161555, 
0.114590, 0.039386, 0.127838, 0.093431, 0.293880, -0.049780, 0.006491, 0.099916, 0.005581, 0.103989, 
-0.187302, 0.115281, 0.064898, -0.023076, -0.084458, 0.161755, -0.018723, 0.123871, 0.107982, 0.057086, 
0.163447, -0.126717, -0.197314, -0.491028, -0.316393, -0.197421, -0.221692, -0.224422, -0.179365, -0.216986, 
0.014356, -0.167977, 0.005212, -0.072016, -0.090616, 0.098249, 0.005434, -0.046370, -0.132911, 0.086685, 
0.022886, 0.106010, 0.168269, 0.000316, 0.078686, 0.149086, 0.098220, 0.167928, -0.277964, -0.164735, 
-0.225165, -0.288945, -0.148079, -0.195336, -0.141859, -0.044343, -0.060454, -0.379840, -0.349464, -0.163701, 
-0.158710, -0.116916, -0.178154, -0.130382, -0.133594, -0.418840, 0.194186, 0.021956, 0.078872, -0.051026, 
-0.024350, 0.033602, 0.216634, 0.059662, -0.062523, -0.024983, 0.024856, 0.021100, 0.022936, 0.083982, 
-0.373215, -0.131639, -0.044937, 0.012310, -0.215235, -0.204658, 0.042159, -0.202857, -0.200215, -0.089355, 
-0.126871, -0.107840, 0.046801, -0.054621, -0.001586, -0.000703, 0.077316, -0.071480, 0.112861, 0.089183, 
0.047787, 0.068917, -0.002050, -0.080929, -0.077590, -0.117976, -0.161616, 0.020514, 0.067583, 0.014135, 
-0.130694, -0.121623, -0.032489, -0.212077, -0.153731, -0.058351, -0.193389, -0.131618, -0.149374, -0.132962, 
-0.060845, 0.006119, 0.183346, 0.146867, 0.051633, 0.018302, -0.095143, 0.004822, -0.123854, -0.159297, 
-0.020765, 0.139324, 0.141113, 0.129299, 0.182747, 0.014087, 0.086861, 0.035138, -0.252313, -0.044414, 
-0.045804, 0.017061, -0.187777, -0.091015, -0.035606, -0.245960, -0.421071, -0.321090, -0.179856, 0.081309, 
-0.010683, 0.101850, -0.096611, -0.007952, 0.202648, -0.252053, 0.067470, 0.007878, -0.036200, 0.106663, 
0.098579, -0.112046, 0.112351, 0.085242, -0.174156, -0.198651, -0.024715, 0.006905, 0.021018, -0.066470, 
-0.063209, -0.140690, -0.338535, -0.438516, -0.526115, -0.207600, -0.219334, -0.160760, -0.073071, 0.127680, 
-0.106657, -0.020916, 0.035175, -0.136543, 0.199338, 0.154373, 0.007619, 0.174417, -0.012347, 0.070084, 
0.001325, -0.105410, -0.234889, 0.069860, 0.064921, 0.143761, 0.143829, 0.036389, 0.104556, 0.016093, 
-0.303511, -0.587406, -0.447454, -0.400052, -0.087977, 0.055818, 0.109384, 0.158892, 0.053145, -0.054200, 
0.027923, -0.050998, 0.217317, 0.155501, 0.268714, -0.109447, 0.151857, 0.234674, -0.012416, -0.176744, 
-0.347279, 0.080706, 0.228422, 0.191131, 0.245290, 0.108324, 0.287350, 0.104582, -0.167452, -0.339608, 
-0.193510, -0.094248, -0.142526, 0.099113, -0.080386, -0.074150, 0.018032, -0.175601, 0.281946, 0.155465, 
0.178740, -0.017177, -0.012356, -0.138403, 0.327545, -0.007768, 0.108895, -0.079562, 0.110261, 0.430272, 
0.425277, 0.125681, 0.074938, 0.147173, 0.131875, 0.372423, 0.251259, -0.023451, 0.035887, -0.126211, 
-0.146016, 0.115387, -0.065400, -0.155701, 0.041181, -0.076879, 0.118209, 0.218282, -0.093611, 0.151763, 
0.085955, 0.143050, 0.242103, 0.250566, -0.019777, -0.307733, 0.126708, 0.185709, 0.573361, 0.188034, 
0.342492, 0.387911, 0.401613, 0.329103, 0.290571, 0.187912, 0.065391, 0.010160, -0.101927, -0.060464, 
0.105582, 0.102819, -0.045975, 0.119638, 0.196233, 0.159574, 0.129159, 0.183027, 0.145385, 0.070255, 
0.173303, 0.041840, -0.199566, -0.252570, -0.007256, 0.432451, 0.311009, 0.494469, 0.189827, 0.324211, 
0.380481, 0.256630, 0.359525, 0.038848, -0.124093, 0.026116, -0.152682, 0.029922, 0.165020, 0.043973, 
-0.079944, 0.049231, -0.122226, 0.057550, 0.176538, 0.147112, -0.013939, -0.061048, 0.028205, -0.151649, 
-0.080051, -0.120318, 0.013661, 0.483988, 0.292825, 0.523324, 0.335829, 0.159747, 0.494710, 0.360684, 
0.303583, -0.024142, 0.229289, 0.120745, -0.176996, 0.077115, -0.065814, -0.044671, -0.189220, -0.268627, 
0.048004, 0.005516, -0.071734, 0.054683, 0.253060, 0.049294, 0.054216, -0.033009, -0.225426, 0.137921, 
0.293160, 0.434095, 0.414917, 0.263813, 0.394830, 0.016329, 0.173024, 0.247006, 0.220394, -0.016029, 
0.042174, -0.018417, -0.023714, -0.038227, 0.033022, -0.184034, -0.008573, -0.210310, 0.058726, 0.119716, 
-0.030362, -0.088028, 0.108358, -0.065969, -0.001999, 0.102852, 0.129178, 0.121701, 0.309864, 0.317649, 
0.244694, 0.081472, 0.233942, 0.149957, 0.258767, 0.100036, -0.122258, 0.033204, 0.039044, -0.068171, 
0.193346, -0.031900, 0.169283, 0.092858, -0.117501, -0.061068, 0.005736, -0.033147, -0.129114, -0.069734, 
-0.217508, -0.382645, -0.265712, -0.031527, -0.030784, -0.207490, 0.136165, 0.129246, 0.126057, -0.102365, 
-0.198288, 0.072786, -0.224070, -0.104480, -0.259504, 0.022498, 0.063127, 0.118062, -0.095828, -0.202249, 
-0.081303, -0.026098, -0.086060, -0.114911, -0.122597, -0.292204, -0.328879, -0.353195, -0.494049, -0.321420, 
-0.317467, -0.145736, -0.014781, -0.226890, -0.034687, -0.111238, -0.064749, -0.129283, -0.077930, -0.061335, 
-0.418547, -0.455026, -0.321671, -0.234190, -0.023266, 0.036049, 0.097651, 0.130889, -0.035624, -0.064006, 
-0.095822, 0.037671, -0.128481, -0.212953, -0.374276, -0.324157, -0.259398, -0.169140, -0.315099, -0.330177, 
-0.103223, -0.365629, -0.437228, -0.431061, -0.090428, -0.239374, -0.311162, -0.582146, -0.661808, -0.498446, 
-0.224822, -0.135600, 0.184218, 0.090526, 0.007512, -0.057803, -0.071402, 0.179033, -0.060625, -0.132638, 
-0.073622, -0.232960, -0.330115, -0.245297, -0.106925, -0.261444, -0.348128, -0.263377, -0.283691, -0.402816, 
-0.288841, -0.364305, -0.335545, -0.654669, -0.445860, -0.393040, -0.305924, -0.406585, -0.230097, 0.145712, 
-0.033365, 0.008560, -0.013090, 0.088992, 0.130485, 0.059629, -0.127223, -0.131225, -0.206587, -0.131366, 
-0.151761, 0.223168, -0.021549, -0.214286, -0.117761, -0.317708, -0.295554, -0.372528, -0.347804, -0.568910, 
-0.565867, -0.424647, -0.463849, -0.240008, -0.340622, -0.187667, -0.053356, -0.177337, -0.117907, 0.013053, 
0.053554, -0.041946, 0.111755, -0.064953, -0.197135, 0.006134, -0.025889, -0.015119, 0.231966, 0.278795, 
0.069614, -0.067976, 0.059831, -0.030480, -0.189482, -0.213264, -0.273219, -0.196417, -0.220726, -0.013791, 
-0.054590, -0.041709, 0.004056, 0.182605, -0.227557, 0.190123, 0.174658, 0.099656, 0.036549, 0.040109, 
0.008219, -0.070925, 0.113794, -0.052229, -0.004302, 0.275102, 0.024323, 0.206229, 0.010773, 0.129714, 
-0.058291, -0.127063, 0.005176, 0.085776, 0.088509, 0.028003, -0.074180, 0.066372, 0.082305, -0.033502, 
-0.109295, 0.155510, 0.123563, -0.065988, -0.020511, 0.072984, 0.210365, -0.131918, -0.032371, 0.035924, 
0.177029, 0.093415, -0.012112, -0.003437, 0.110260, 0.129683, 0.320584, 0.194421, 0.172999, 0.003186, 
0.157777, -0.016669, -0.039329, 0.242824, 0.041678, 0.002989, 0.116256, 0.211469, 0.080451, 0.093129, 
0.006317, 0.231305, 0.019351, 0.178867, -0.034338, 0.159404, -0.045218, 0.320881, -0.122823, 0.041171, 
0.055439, 0.240461, 0.050971, -0.090276, 0.096578, -0.128509, 0.048527, 0.075675, 0.065128, 0.094674, 
0.173660, 0.025585, -0.015152, 0.021489, 0.044247, 0.174677, -0.003674, -0.048164, -0.027519, 0.214749, 
0.000751, 0.132965, 0.160677, -0.086863, -0.006830, -0.095732, 0.107849, 0.001263, -0.116673, 0.136160, 
-0.101505, -0.052230, 0.043051, -0.020371, -0.055295, -0.028150, -0.087303, 0.141507, 0.081816, 0.064073, 
-0.041816, 0.092070, 0.050863, 0.062217, 0.144190, -0.088628, -0.050547, 0.161043, 0.040176, 0.006830, 
0.146253, 0.047123, -0.131175, -0.115097, 0.071010, 0.040760, 0.143835, 0.023052, -0.175797, 0.101502, 
0.026917, -0.149580, 0.124670, -0.010684, -0.149370, -0.097372, -0.226209, -0.014959, -0.086904, -0.086924, 
-0.113994, -0.061244, -0.019206, -0.248866, -0.076866, 0.079150, 0.196426, -0.028896, -0.035861, -0.169099, 
0.015456, 0.062622, 0.008330, -0.059394, -0.076019, -0.018402, -0.287536, -0.038610, 0.014634, 0.059085, 
0.002698, -0.067585, -0.090349, -0.083164, 0.103294, 0.036019, 0.117185, 0.178136, 0.028266, 0.096046, 
0.168063, 0.074078, 0.018339, -0.159966, 0.041177, 0.042389, -0.028754, -0.067414, -0.159131, -0.184351, 
-0.037113, 0.047567, 0.012764, 0.034314, 0.007150, 0.058363, -0.014694, -0.367735, -0.233386, 0.018791, 
-0.008115, 0.010781, 0.006891, 0.022724, 0.164897, 0.008802, 0.152042, 0.110131, 0.248202, -0.012174, 
0.028731, -0.019088, -0.051015, 0.056555, 0.091793, 0.013261, 0.003292, 0.024299, 0.001075, -0.070366, 
-0.057038, 0.065894, 0.006433, -0.024942, 0.011305, -0.075109, -0.174979, 0.011033, -0.059914, 0.141593, 
-0.113475, -0.048100, 0.013123, -0.005332, 0.059112, 0.120369, 0.228852, 0.185337, 0.118939, 0.000025, 
-0.169251, -0.194562, 0.043245, 0.092118, 0.004583, -0.067842, 0.085543, 0.059634, -0.179846, 0.214245, 
0.155182, 0.144023, -0.119053, -0.081887, -0.130374, -0.146230, -0.196658, -0.057627, -0.140951, -0.038012, 
-0.136231, -0.277993, 0.035361, 0.082512, 0.039079, 0.011753, -0.062378, -0.125455, 0.107416, -0.129257, 
0.095609, -0.058144, 0.027672, 0.068131, 0.260448, -0.031041, 0.187953, 0.111078, 0.098123, -0.222680, 
0.003951, 0.116867, -0.117935, 0.004552, -0.042435, 0.201797, 0.051048, -0.098760, 0.047278, -0.077245, 
0.230259, -0.179778, 0.053208, -0.116492, -0.323884, -0.307839, -0.270147, 0.020489, 0.048520, -0.097188, 
0.040102, -0.072236, 0.006104, 0.008209, 0.146183, -0.007752, -0.154788, -0.166552, -0.210516, -0.237702, 
-0.125519, -0.065948, -0.060990, -0.007737, 0.373060, 0.022546, 0.046421, 0.243083, 0.058522, 0.034721, 
0.023178, -0.173907, -0.435599, -0.326910, -0.267363, -0.125916, -0.077845, 0.037087, 0.017080, -0.109873, 
-0.004323, -0.038602, 0.261821, 0.094159, 0.026607, -0.183173, -0.093867, -0.170126, -0.174813, -0.161149, 
0.041764, -0.003528, 0.145649, 0.304663, 0.094745, 0.301642, -0.084666, 0.019462, -0.267869, -0.298486, 
-0.033179, -0.392605, -0.249957, -0.191012, -0.139446, -0.140682, -0.131324, 0.029538, -0.003452, 0.062333, 
0.081404, -0.080183, -0.121313, 0.051526, 0.115268, 0.021553, -0.121325, -0.140072, -0.068190, 0.103752, 
0.301115, 0.125073, -0.089917, -0.179308, -0.263266, -0.332569, -0.262121, -0.217240, -0.349973, -0.171783, 
-0.143027, -0.130211, 0.146967, 0.130662, -0.088449, 0.006621, -0.189820, -0.049020, -0.223165, -0.184873, 
-0.146077, -0.087389, 0.012015, -0.236532, -0.153726, -0.190922, -0.177672, -0.047095, 0.137019, 0.075550, 
-0.197036, -0.350693, -0.219715, -0.269380, -0.207052, -0.066622, 0.023112, 0.145212, 0.144787, 0.129237, 
0.064578, 0.050912, -0.286774, 0.055741, 0.009014, -0.064688, 0.041933, -0.137463, -0.193389, 0.026632, 
-0.182437, -0.298212, -0.311562, -0.086884, 0.098873, 0.304869, 0.383365, 0.027283, -0.159616, 0.184006, 
0.110196, 0.018349, 0.182498, -0.233045, 0.110572, 0.046876, 0.028205, 0.016558, -0.094605, -0.061010, 
-0.098586, -0.118964, -0.098993, -0.065852, -0.089637, -0.187140, -0.066931, -0.131203, -0.203834, 0.072988, 
0.185444, 0.105162, 0.356259, 0.210739, 0.448235, 0.240006, 0.276828, 0.138823, 0.300031, -0.092344, 
-0.101497, -0.219426, -0.228367, 0.080321, 0.016653, -0.233653, -0.100771, -0.033591, 0.041370, 0.008847, 
-0.024683, 0.075064, -0.255189, -0.193875, -0.111074, -0.060395, -0.056831, 0.143958, -0.145872, -0.147152, 
0.199644, 0.529044, 0.311907, 0.180839, 0.321216, -0.133203, 0.116170, 0.066970, -0.240825, -0.394075, 
-0.348797, 0.013484, -0.101592, -0.076937, -0.012027, 0.118834, -0.092500, -0.012947, -0.103936, -0.054581, 
0.092194, -0.044973, -0.284809, -0.284119, -0.005529, 0.076420, -0.071536, 0.037570, 0.363410, 0.060054, 
0.021050, 0.070236, -0.044041, -0.111902, -0.046331, -0.160236, -0.254659, 0.034419, -0.074429, 0.125743, 
0.105910, -0.069629, 0.029017, -0.116521, 0.067489, -0.175436, 0.176878, -0.104781, -0.069511, -0.116484, 
-0.182901, -0.440477, -0.233518, 0.000633, -0.000497, 0.245592, 0.410964, 0.162262, 0.158218, -0.104628, 
0.124948, -0.195562, -0.075484, -0.065576, 0.218786, 0.133033, 0.143394, 0.142644, 0.085996, -0.152377, 
-0.143773, 0.031449, 0.048329, 0.198465, -0.096421, 0.105135, -0.048729, 0.061688, -0.173172, -0.414271, 
-0.502499, -0.555006, -0.241274, 0.172523, 0.131792, -0.053664, -0.074935, -0.208399, -0.192395, -0.276018, 
0.083510, 0.180455, 0.045802, 0.027088, 0.311574, 0.023412, -0.255179, -0.186907, -0.107961, 0.018289, 
0.020920, -0.023088, 0.055607, -0.001694, 0.108726, 0.181001, -0.192754, -0.387826, -0.661851, -1.050486, 
-0.740204, -0.820436, -0.709886, -0.530891, -0.367040, -0.265628, -0.176641, -0.062327, 0.063561, 0.141344, 
0.064734, 0.362952, 0.279125, -0.029679, -0.230711, -0.082155, -0.076183, 0.092556, -0.012276, -0.013894, 
0.132666, 0.261025, 0.117717, 0.020600, -0.036766, -0.289274, -0.310212, -0.558322, -0.554522, -0.581980, 
-0.756390, -0.474308, -0.314822, 0.002185, 0.057381, 0.032531, -0.057955, 0.233137, 0.079484, 0.263971, 
0.025110, -0.250644, -0.243460, -0.126009, 0.239692, -0.055049, -0.000981, -0.086442, 0.050100, 0.286615, 
0.123436, 0.056533, 0.090767, -0.072819, 0.081525, 0.087394, -0.058375, -0.039607, -0.022346, -0.039958, 
-0.032279, 0.020875, 0.163021, 0.093306, 0.187180, -0.049240, -0.091921, 0.097519, -0.014715, 0.014151, 
-0.354968, -0.052994, 0.021837, -0.042009, 0.058793, -0.144057, -0.080463, 0.145742, -0.011000, -0.088110, 
0.087610, 0.028737, 0.129232, 0.223500, 0.300064, 0.332413, -0.072298, 0.034314, 0.037031, -0.168933, 
0.154478, 0.091039, 0.186749, 0.113340, -0.059666, 0.059360, 0.018175, -0.263169, -0.115700, 0.109296, 
-0.028057, 0.043989, -0.008453, 0.113314, 0.019517, 0.128415, 0.237869, 0.235247, 0.021054, 0.171054, 
0.110247, -0.059656, 0.044506, 0.082580, 0.169662, -0.193804, -0.000470, 0.127695, 0.052040, -0.036188, 
0.088115, 0.060554, 0.027661, -0.022468, -0.147764, -0.284796, -0.068208, 0.043466, -0.026702, 0.086557, 
0.025961, 0.057049, -0.050719, 0.105376, 0.054007, 0.164662, 0.156133, -0.048171, 0.077287, 0.031593, 
0.018239, -0.191861, -0.160061, 0.015159, -0.228581, -0.022590, -0.084989, 0.062871, -0.074762, -0.023985, 
0.003819, -0.104823, 0.007284, -0.193995, 0.006054, 0.113472, -0.112626, -0.146260, -0.036885, 0.073888, 
0.033820, 0.079902, 0.384219, 0.305347, -0.001818, 0.099975, 0.024171, 0.242866, 0.126902, 0.069305, 
0.161161, -0.095906, -0.043969, -0.026748, -0.073238, 0.101719, 0.014018, -0.102749, -0.179720, -0.236439, 
-0.116309, 0.074702, 0.014534, -0.036670, 0.023973, 0.093245, 0.113101, -0.081812, -0.120784, 0.207372, 
0.196313, 0.175900, 0.078679, 0.030778, 0.167646, 0.084255, 0.339346, -0.087601, -0.052568, -0.030409, 
-0.029650, -0.030812, -0.236419, 0.018864, -0.208500, -0.193833, -0.123627, 0.031474, -0.132976, -0.041301, 
-0.092271, 0.060589, -0.019055, 0.174275, 0.063175, -0.004085, 0.152117, 0.132471, 0.142380, 0.110174, 
-0.038191, 0.173360, 0.180803, 0.143386, 0.195057, 0.103868, 0.391557, 0.242976, -0.057395, -0.097187, 
-0.120871, -0.267729, -0.051150, -0.069988, -0.172309, 0.026979, 0.046518, -0.062292, 0.033281, 0.070392, 
0.016182, -0.089913, -0.047664, 0.074093, -0.023495, 0.112308, 0.143795, 0.040659, -0.211915, -0.033586, 
0.072897, 0.045438, 0.197081, 0.050522, 0.111516, 0.047050, -0.070697, 0.038819, 0.093637, 0.061844, 
0.089509, -0.007703, 0.018574, -0.162258, -0.064796, 0.033749, -0.147467, 0.022113, 0.068736, 0.018442, 
-0.077407, -0.094350, -0.043505, 0.098589, -0.056099, 0.206809, 0.196782, 0.114438, -0.062959, -0.065467, 
0.110864, 0.057812, 0.083611, -0.041098, 0.025240, 0.161292, -0.086354, 0.014319, -0.065451, 0.095345, 
0.018843, 0.099969, 0.010088, 0.072539, -0.035368, -0.274605, 0.081775, 0.020038, -0.216297, 0.041826, 
0.090612, 0.211482, -0.087384, 0.072079, 0.000965, -0.149871, 0.031634, -0.022807, 0.205994, 0.022736, 
0.106334, -0.129454, 0.087559, 0.004778, 0.121673, -0.094455, -0.033723, -0.071977, 0.137966, 0.061301, 
-0.144654, -0.146451, -0.000560, -0.060745, -0.121026, -0.168575, 0.058963, -0.014743, 0.118249, 0.200017, 
-0.052434, 0.050268, -0.117471, 0.156168, 0.120849, -0.019648, -0.032212, 0.092543, -0.050501, -0.085221, 
0.030138, -0.028662, -0.119428, -0.081009, -0.196942, 0.034363, -0.091501, -0.054288, 0.216897, -0.078929, 
-0.102832, -0.175357, -0.124040, -0.112098, 0.034659, -0.078133, 0.091904, -0.114458, 0.080326, -0.053310, 
-0.025817, 0.032478, 0.173442, 0.192201, -0.097805, 0.067312, 0.013811, -0.069535, -0.075713, -0.202646, 
-0.309050, -0.005372, 0.033487, -0.161562, 0.111845, -0.081607, -0.060995, 0.171900, -0.110682, 0.271490, 
-0.048770, 0.027959, -0.098054, -0.082530, -0.152773, -0.188039, 0.041941, -0.045050, -0.038587, 0.070432, 
0.003921, -0.027830, -0.013575, 0.041062, 0.406554, 0.335592, 0.118777, 0.228649, 0.072219, 0.137004, 
-0.126401, -0.027978, 0.094509, -0.205942, -0.061228, -0.024726, -0.135435, 0.059589, -0.029770, -0.142672, 
0.082835, -0.029428, -0.203464, -0.014037, -0.123634, -0.033031, 0.081877, 0.136795, 0.174223, 0.332038, 
0.453528, 0.441573, 0.209627, 0.350004, 0.174920, 0.314155, -0.083962, 0.237313, 0.137980, 0.057928, 
-0.032108, 0.093455, -0.228510, -0.258518, 0.004214, -0.225487, -0.033252, 0.013651, 0.040456, -0.072668, 
-0.037792, 0.023434, 0.053060, 0.308176, 0.262506, 0.437086, 0.195274, 0.223860, 0.161023, 0.409776, 
0.204628, 0.266074, 0.127367, 0.282779, 0.170804, 0.063098, 0.075773, 0.168095, -0.052136, 0.121758, 
-0.255685, -0.371400, -0.048938, 0.029777, 0.034410, -0.050303, -0.113097, -0.088416, 0.023805, -0.000020, 
0.259688, 0.445897, 0.620798, 0.289901, 0.279748, 0.337856, 0.318095, 0.340346, 0.165144, 0.509564, 
0.123919, 0.196171, 0.341693, -0.040607, 0.331500, -0.058018, -0.003663, 0.041593, -0.078186, -0.319489, 
-0.273636, -0.089580, 0.078577, -0.068315, -0.063996, 0.037252, -0.125442, -0.013119, 0.224883, 0.163363, 
0.358010, -0.001024, 0.156459, 0.169236, 0.136720, 0.303836, 0.396741, 0.308964, 0.231090, 0.151356, 
0.005228, 0.224789, 0.140356, 0.061850, 0.140782, 0.013861, -0.083278, -0.176739, -0.382146, -0.306662, 
-0.195346, 0.053346, 0.018062, -0.003875, -0.010941, 0.184933, 0.368008, 0.418507, 0.237434, 0.361725, 
-0.051069, 0.148042, 0.127469, 0.103000, 0.291763, 0.029859, 0.495368, 0.549194, 0.138164, 0.011406, 
0.074914, 0.149693, 0.111942, 0.059626, 0.052222, -0.307682, -0.628510, -0.185816, -0.063389, -0.042652, 
0.004087, -0.097797, 0.083434, 0.200856, 0.311048, 0.229895, 0.244873, -0.077224, -0.011123, -0.152443, 
-0.020305, -0.157921, -0.043461, 0.187101, 0.631065, 0.779044, 0.537720, 0.533091, 0.450196, 0.187030, 
0.227488, 0.052784, 0.059149, 0.020880, -0.374166, -0.298204, -0.061964, 0.021674, -0.007907, 0.080999, 
0.150943, 0.435930, 0.091522, -0.023433, -0.052061, -0.332455, -0.407607, -0.504222, -0.439568, -0.407449, 
-0.533784, -0.061346, 0.164482, 0.367351, 0.704458, 0.590729, 0.460615, 0.381093, 0.431991, 0.185137, 
0.143622, -0.079658, -0.293260, -0.185277, -0.012700, -0.046002, -0.073002, -0.002516, -0.173035, 0.180307, 
0.116223, -0.154332, -0.417998, -0.613585, -0.621451, -0.410901, -0.483651, -0.250322, -0.505504, -0.472581, 
-0.546371, -0.322204, -0.112503, 0.095597, 0.224060, 0.157728, 0.316267, 0.420093, 0.275468, 0.080699, 
-0.332397, -0.257425, -0.141467, 0.018855, -0.071168, 0.060563, 0.021058, 0.065887, 0.109961, -0.198088, 
-0.480976, -0.351556, -0.164400, -0.135283, -0.146235, -0.243786, -0.315451, -0.473952, -0.400762, -0.500742, 
-0.064148, -0.016804, -0.020578, -0.001538, 0.096470, 0.008132, 0.279901, 0.134160, 0.017146, 0.128700, 
0.050273, 0.075846, 0.008269, 0.151375, 0.166817, 0.106268, 0.024003, -0.162194, -0.442338, -0.259760, 
-0.296870, -0.073723, -0.045182, -0.167455, -0.341884, -0.235792, -0.385859, -0.352418, 0.003916, 0.031588, 
-0.089008, -0.098623, 0.075033, -0.138470, -0.013854, -0.045698, 0.185111, 0.179733, -0.154671, -0.062497, 
0.064362, 0.198733, 0.210087, 0.080562, 0.096534, 0.029869, -0.065725, 0.268351, -0.071693, -0.164243, 
-0.325736, -0.426698, -0.330427, -0.059644, -0.299015, -0.350272, -0.130982, -0.019854, 0.260330, -0.020943, 
0.166175, -0.131699, -0.225592, -0.074071, -0.068166, 0.164385, 0.033978, 0.078480, 0.062788, -0.045127, 
-0.073840, 0.052917, 0.182378, 0.184664, 0.254688, 0.093675, -0.071114, -0.207321, -0.196249, -0.283131, 
-0.286922, -0.265470, -0.465051, -0.218748, -0.066892, 0.115748, -0.069151, 0.080652, 0.179219, 0.173969, 
-0.017101, 0.012461, -0.023939, 0.052097, 0.174284, 0.002215, -0.104189, -0.092263, 0.101314, -0.051754, 
0.218640, 0.292928, 0.143452, 0.078326, -0.196835, -0.203731, -0.117067, -0.110980, -0.067890, -0.104893, 
-0.403314, -0.281828, -0.190918, 0.179654, 0.106786, 0.115298, 0.012617, 0.047977, 0.089516, -0.066490, 
-0.008495, 0.057607, -0.031304, 0.104678, -0.102232, -0.005197, 0.012841, 0.026080, 0.415857, 0.156456, 
-0.055723, -0.131463, -0.072886, -0.242824, -0.293435, -0.369501, -0.169075, -0.386741, -0.470634, -0.263324, 
0.050568, 0.102558, 0.024580, -0.012911, -0.227111, 0.061873, 0.048794, -0.116600, -0.073152, 0.165819, 
-0.052330, -0.053397, 0.005332, -0.086229, 0.024788, 0.144259, 0.088529, 0.117746, -0.268880, -0.099795, 
-0.131258, -0.118391, -0.144683, -0.239152, -0.190250, -0.349662, -0.371878, 0.018394, 0.207208, 0.148163, 
0.237180, 0.126690, -0.011407, 0.270150, 0.226177, -0.047704, -0.023844, 0.051004, 0.082151, -0.052691, 
0.064843, -0.089305, 0.187282, 0.162164, 0.217067, -0.012562, -0.147198, 0.061810, -0.228629, -0.170562, 
-0.093739, -0.127430, 0.045613, -0.033275, 0.028478, 0.139970, -0.041914, 0.257147, 0.138455, 0.111504, 
0.139382, 0.148535, -0.049596, -0.069887, 0.048684, 0.204923, 0.084092, -0.099798, 0.051691, -0.135576, 
-0.050522, 0.121703, 0.201568, 0.184862, 0.043248, 0.158975, -0.073337, 0.066158, 0.033876, -0.045589, 
-0.018140, 0.248957, 0.031632, 0.105140, 0.124809, 0.039807, 0.168011, 0.122051, 0.156519, -0.038304, 
-0.122106, -0.148612, 0.073607, 0.070163, 0.037141, 0.150124, -0.173300, -0.009674, 0.126370, 0.212123, 
0.091791, 0.062245, 0.188246, -0.037571, -0.004108, 0.058123, -0.070283, 0.032498, 0.028614, -0.159615, 
-0.046011, -0.002851, -0.044274, -0.011107, 0.086992, 0.108745, -0.059531, 0.002770, -0.001394, -0.073445, 
0.030601, 0.155598, 0.097246, -0.020242, 0.206716, 0.153812, 0.042304, -0.062840, 0.133979, 0.119529, 
0.093244, 0.094371, 0.085180, 0.026813, -0.016586, -0.074046, 0.144761, -0.048746, -0.069546, -0.000171, 
-0.039424, -0.121134, -0.099066, 0.000478, 0.053567, 0.056439, 0.023617, -0.129300, -0.100653, 0.001898, 
-0.151704, -0.108714, -0.165883, -0.026722, -0.047671, 0.094330, -0.022542, 0.013813, 0.188208, 0.267123, 
-0.274345, -0.079419, -0.045694, 0.026906, -0.225792, 0.028202, -0.188301, -0.140580, -0.228094, -0.105738, 
-0.103821, -0.050407, -0.049193, 0.199915, -0.084418, 0.284131, -0.042935, -0.202507, 0.035226, 0.052375, 
0.068750, -0.057861, 0.037685, 0.095111, 0.160554, 0.168569, 0.262995, 0.110695, 0.095604, -0.088404, 
0.008213, 0.138062, -0.044197, 0.223685, 0.207728, 0.008707, -0.081530, 0.117063, -0.222713, -0.278049, 
-0.017555, 0.017768, 0.017323, -0.019194, -0.006863, 0.053791, -0.036027, 0.076913, 0.081984, -0.071025, 
0.085646, 0.085602, 0.007807, 0.159960, 0.242293, 0.299379, 0.504798, 0.274857, 0.278249, 0.406959, 
0.303462, 0.195112, 0.065620, 0.270537, 0.134334, 0.166732, 0.018748, 0.073087, 0.194697, 0.147684, 
0.110855, -0.086570, -0.144348, 0.009435, 0.049645, 0.074044, 0.128246, -0.040565, 0.025728, 0.024452, 
-0.090158, -0.098198, 0.055010, 0.169344, 0.019061, 0.225861, 0.141237, 0.020471, -0.020107, 0.091122, 
0.162669, 0.145182, 0.156056, 0.210035, 0.031797, 0.059741, 0.073269, 0.068475, 0.099791, 0.116236, 
-0.157631, 0.040214, 0.079064, 0.007304, -0.024537, 0.025448, 0.142096, -0.038693, -0.011941, 0.074183, 
-0.080705, 0.005807, 0.055664, 0.043454, 0.085140, 0.015487, -0.148105, 0.219797, -0.064755, 0.080969, 
0.033812, 0.088377, -0.139679, 0.199266, -0.040961, 0.021562, -0.011395, -0.128397, 0.159535, -0.150182, 
0.059441, -0.125980, 0.024916, 0.067665, 0.045965, -0.116255, -0.234831, 0.060965, -0.011622, -0.144700, 
0.216544, -0.050547, -0.103219, -0.073097, -0.024390, -0.016954, -0.043306, 0.014571, 0.050732, -0.113325, 
-0.054391, -0.073330, 0.031974, 0.021912, 0.215632, -0.080582, -0.098684, 0.002004, -0.065267, 0.031487, 
0.048394, 0.071080, -0.006499, 0.164720, 0.215833, 0.005358, 0.103299, 0.027838, 0.056745, -0.021568, 
0.201255, -0.082531, 0.059134, 0.188843, 0.095380, 0.055353, 0.245074, 0.086492, 0.033171, -0.123909, 
-0.032547, 0.022114, -0.017511, -0.184968, 0.078958, 0.106442, -0.118427, 0.141210, 0.078123, 0.000677, 
0.122028, -0.038891, 0.025588, -0.036922, -0.011349, 0.194430, 0.014354, 0.092397, 0.197839, 0.247436, 
0.210491, 0.334664, 0.184246, 0.332811, 0.337952, 0.031218, 0.099736, 0.139585, 0.219799, 0.155800, 
0.073185, 0.211457, 0.284306, 0.033546, -0.020994, -0.027404, 0.082854, -0.055918, -0.008135, 0.152000, 
0.023349, 0.024913, 0.045634, 0.046616, 0.099585, 0.282951, 0.143807, 0.174844, 0.216975, 0.344111, 
0.134909, 0.232280, 0.037677, 0.148817, 0.197074, 0.010944, 0.178493, 0.030307, 0.091715, 0.069022, 
0.066772, 0.016130, -0.122174, 0.073817, 0.022076, -0.119416, 0.009186, -0.198309, 0.007397, -0.106628, 
0.054671, -0.139198, 0.001811, 0.071737, 0.083996, -0.220428, 0.033783, -0.145717, -0.050989, -0.070957, 
0.151377, 0.156131, 0.138080, -0.010523, 0.170851, 0.145487, -0.204808, -0.117268, -0.169945, -0.247566, 
-0.042037, 0.017934, -0.052153, -0.036925, -0.076860, 0.045897, 0.109773, -0.194501, -0.146855, -0.018834, 
0.008364, -0.150098, -0.083648, 0.043242, 0.038539, 0.353353, 0.091305, -0.156099, -0.166496, 0.040207, 
-0.144211, -0.029823, -0.001002, -0.005451, -0.053896, -0.305733, -0.085436, -0.186180, 0.128154, -0.011495, 
0.153418, 0.084457, 0.107222, -0.098942, -0.050649, -0.317714, -0.217043, -0.085303, -0.282890, 0.028919, 
0.122688, 0.187574, 0.062169, 0.075146, 0.142412, 0.171095, 0.098726, 0.212282, -0.163181, -0.038615, 
-0.160351, 0.100942, -0.308997, -0.326546, -0.258120, -0.045057, 0.065691, 0.110109, 0.077232, -0.194636, 
0.088783, -0.052826, -0.027593, -0.262321, -0.192569, -0.030962, -0.026363, -0.148935, -0.009817, -0.022233, 
0.108648, -0.082873, 0.191711, 0.373949, 0.204688, -0.101103, 0.037881, -0.036518, -0.011403, -0.099862, 
-0.238534, -0.315949, -0.206766, -0.388686, 0.031426, -0.083154, 0.080076, 0.134162, 0.033632, -0.063344, 
0.280966, 0.049034, -0.053253, -0.163394, -0.015807, -0.249128, -0.008123, 0.096340, 0.090327, 0.269778, 
0.347198, 0.236098, -0.056177, 0.047924, -0.262346, -0.171371, -0.066455, -0.142009, -0.151507, -0.327066, 
-0.488283, -0.367344, -0.127223, 0.010624, 0.120963, -0.000770, 0.091349, 0.019671, 0.004026, 0.195223, 
-0.083100, 0.102526, 0.028255, -0.136859, 0.025737, 0.023715, 0.118810, 0.126553, 0.469903, 0.241166, 
-0.046952, -0.070029, -0.034262, -0.062319, -0.076959, -0.210572, -0.192119, -0.374164, -0.219802, -0.142481, 
-0.255088, -0.015299, -0.007580, -0.046588, 0.141030, -0.155510, -0.056403, 0.082897, 0.076020, 0.296453, 
0.130014, 0.059040, 0.125145, -0.040261, -0.088805, -0.056435, 0.164576, -0.213444, -0.124658, -0.185184, 
-0.124592, -0.246768, -0.240663, -0.166398, -0.103074, -0.171161, -0.386077, -0.242507, -0.151728, 0.014027, 
0.070949, -0.100902, 0.104198, 0.088637, 0.277304, 0.311755, 0.476288, 0.376514, 0.203361, 0.013611, 
-0.044970, -0.047815, -0.278457, -0.113872, 0.125844, -0.197244, -0.300551, -0.120321, 0.170568, -0.013415, 
0.214305, 0.048856, 0.179522, -0.006845, -0.097927, -0.114606, -0.100790, 0.013598, 0.056688, 0.127295, 
-0.139199, 0.071023, 0.313391, 0.284039, 0.216595, 0.133177, 0.021108, -0.023879, -0.093860, -0.259693, 
-0.567255, -0.300928, 0.053527, 0.075360, -0.093251, 0.048224, 0.247987, 0.189279, 0.081902, 0.313934, 
0.302386, 0.293737, 0.169304, 0.086710, -0.063746, 0.079319, -0.015127, 0.077344, -0.041300, -0.012321, 
0.206197, 0.174787, -0.097410, 0.049092, 0.045457, -0.080541, -0.186603, -0.384724, -0.436344, 0.049546, 
0.374167, 0.164645, 0.148114, 0.044541, 0.014897, 0.171659, 0.011549, 0.032926, 0.212767, 0.074341, 
0.022105, -0.102221, 0.019111, -0.048734, 0.084136, 0.078422, -0.032341, 0.209516, 0.027613, -0.366309, 
-0.139884, -0.330986, -0.123998, -0.244228, -0.332675, -0.297316, -0.271064, 0.159742, 0.347879, 0.065656, 
0.146477, -0.115599, -0.146797, -0.159261, -0.067666, 0.102518, -0.040237, 0.082148, 0.017982, 0.002557, 
-0.012736, -0.010481, -0.056734, -0.158909, 0.215520, 0.014110, -0.231697, -0.386066, -0.109697, -0.159852, 
-0.290674, -0.489380, -0.301511, -0.028042, 0.037889, 0.293925, 0.251955, 0.123641, -0.048045, 0.186915, 
0.085257, -0.162643, -0.183579, -0.059357, -0.062632, -0.069751, 0.047244, -0.009295, 0.024836, 0.109543, 
-0.025187, -0.020396, -0.082702, 0.090142, -0.165028, -0.300363, -0.231380, -0.182466, -0.310033, -0.429080, 
0.111013, 0.466602, 0.004191, 0.065671, 0.144354, -0.230037, 0.142372, -0.024943, -0.175969, -0.348335, 
-0.280205, -0.323525, -0.113467, -0.064036, -0.008516, 0.268085, -0.071814, -0.066402, 0.080200, 0.059893, 
-0.133510, -0.072320, -0.149826, -0.320003, -0.361754, -0.184324, -0.376655, -0.045699, 0.250765, 0.396168, 
0.260112, 0.295810, 0.082994, 0.063338, -0.080778, -0.308833, -0.168390, -0.090402, -0.005957, -0.122187, 
-0.212684, -0.272200, -0.143342, 0.193801, 0.274622, 0.145753, 0.076921, -0.017578, -0.133464, -0.270195, 
-0.338002, -0.577062, -0.418079, -0.431922, -0.095213, 0.213679, 0.265768, 0.230440, 0.014605, 0.118661, 
0.358484, 0.126750, -0.170805, 0.060827, -0.130862, -0.185543, -0.179304, -0.174391, -0.134891, -0.303300, 
-0.047117, 0.113758, -0.002784, -0.181208, 0.046680, -0.105126, -0.061337, -0.166771, -0.427516, -0.477383, 
-0.591069, -0.234197, 0.059439, 0.310618, 0.158165, 0.273653, 0.234169, 0.282844, 0.118117, 0.234263, 
0.072375, 0.036022, 0.022170, 0.081698, -0.006155, -0.231882, -0.006929, 0.097174, 0.030763, 0.031340, 
0.072329, 0.011793, 0.019641, 0.119625, -0.166284, -0.341429, -0.419116, -0.431359, -0.452919, -0.114980, 
-0.014390, 0.070162, 0.413158, 0.226307, 0.149959, 0.125342, -0.027252, 0.020060, 0.082027, -0.080796, 
0.028535, 0.179740, -0.110158, 0.002038, 0.056632, 0.072182, 0.340333, -0.224919, -0.089732, -0.231440, 
0.117528, -0.060126, -0.116077, -0.113242, -0.202121, -0.017812, -0.093038, 0.092468, -0.305026, 0.070868, 
0.006411, 0.059418, -0.099358, 0.031071, 0.002844, 0.017592, -0.052530, -0.086275, 0.158669, -0.041445, 
0.090258, -0.023906, -0.023205, -0.022709, 0.174053, 0.189726, -0.019125, -0.161886, 0.094452, 0.248542, 
-0.161046, 0.094104, -0.033008, 0.080293, -0.021020, 0.127502, 0.006847, -0.133690, -0.144592, -0.245951, 
-0.178300, -0.244947, -0.072139, -0.182117, -0.097543, -0.033734, -0.202253, -0.225549, -0.015395, 0.073390, 
0.241795, 0.076313, 0.128795, 0.013481, -0.102640, 0.154840, -0.043703, -0.108463, 0.024859, -0.070162, 
-0.038138, 0.099972, -0.060100, 0.039626, -0.009612, -0.171477, -0.185322, -0.117692, -0.026633, 0.027460, 
-0.025401, 0.029501, -0.019761, 0.067627, -0.001113, 0.092006, 0.192251, 0.206220, 0.186574, 0.018010, 
-0.082886, -0.031183, -0.039507, -0.093037, 0.282595, 0.013254, 0.001474, 0.031284, -0.044006, -0.156093, 
-0.241645, -0.241808, -0.057968, -0.102031, -0.201436, -0.167429, 0.019748, -0.025005, -0.078693, 0.017705, 
-0.097223, 0.037575, -0.177177, 0.106226, 0.272416, 0.149496, -0.112891, 0.086357, -0.032218, 0.056227, 
0.172725, 0.057413, -0.156623, -0.022502, 0.152228, 0.043409, -0.138667, 0.101840, 0.089046, 0.041837, 
0.247240, 0.014770, 0.093799, 0.247697, 0.133427, -0.084578, 0.069839, 0.191693, 0.159502, 0.101330, 
0.233525, 0.325984, 0.199949, 0.130145, -0.048096, 0.081069, -0.079012, -0.050608, -0.156804, -0.016720, 
-0.100753, -0.093842, 0.118388, 0.053431, -0.095861, -0.021527, 0.215814, 0.068961, 0.156137, 0.314792, 
0.355266, 0.361892, 0.286439, 0.490012, 0.396351, 0.254851, 0.376338, 0.361811, 0.198033, 0.018042, 
0.210824, 0.081049, 0.131032, -0.082584, 0.175859, 0.025768, 0.032990, -0.117426, 0.169826, 0.112032, 
0.040709, 0.047468, 0.080462, -0.045644, 0.184750, -0.072051, 0.131068, -0.080189, 0.129237, 0.023683, 
0.187582, 0.222717, 0.049879, -0.048880, 0.066813, 0.131170, 0.158279, 0.141747, 0.140496, -0.039594, 
-0.082782, -0.101097, 0.072017, 0.101823, -0.106612, 0.010438, -0.019619, -0.018265, 0.005813, 0.009187, 
-0.045326, 0.032401, 0.155312, 0.069536, -0.035080, -0.171377, 0.001486, -0.055370, -0.081026, -0.022181, 
-0.035578, -0.041553, 0.052885, 0.050319, -0.067595, -0.349338, 0.114708, 0.181789, 0.099025, -0.076329, 
-0.101084, 0.157161, 0.300987, -0.100581, -0.022899, -0.096210, 0.081634, -0.008828, -0.101614, -0.051319, 
0.134029, -0.075153, -0.028945, -0.132386, 0.070519, 0.037480, 0.046267, 0.194423, 0.145531, 0.007401, 
0.051427, -0.005153, 0.093783, 0.077915, 0.106155, -0.081192, 0.049372, -0.022030, 0.090528, 0.156577, 
-0.133961, -0.105220, 0.113804, 0.123139, -0.031323, -0.057104, 0.059198, 0.045935, 0.010723, 0.041024, 
0.190984, 0.251745, 0.214165, 0.241043, 0.267514, 0.087805, 0.052109, 0.158039, 0.115838, 0.125779, 
0.160564, 0.075512, 0.148972, 0.055235, -0.102910, -0.078812, 0.077145, 0.092120, 0.148206, -0.043891, 
0.147149, -0.041348, 0.140846, -0.276514, 0.022522, -0.103875, 0.195079, -0.058978, 0.074974, 0.158522, 
0.056813, 0.107604, 0.397722, 0.248433, 0.302900, 0.227837, 0.172936, 0.087503, 0.129852, 0.367149, 
0.194826, -0.209665, 0.218304, -0.021719, 0.115861, -0.179745, 0.059822, -0.054423, -0.134902, 0.039178, 
-0.076756, 0.135607, 0.105668, -0.045879, -0.027767, -0.031754, -0.128395, -0.059672, 0.024135, 0.013715, 
0.128890, 0.090789, 0.115450, 0.004619, -0.071141, 0.286925, 0.184349, 0.032870, 0.126766, -0.176829, 
0.215624, 0.088325, 0.075986, -0.036873, -0.041467, -0.055650, -0.048625, 0.090811, 0.116690, 0.061342, 
-0.094673, -0.037426, -0.205693, 0.164131, -0.075530, -0.046187, -0.122794, -0.116176, -0.114456, 0.100335, 
0.120384, -0.075463, 0.089104, 0.185670, -0.004945, 0.302749, 0.141230, -0.011108, -0.102779, -0.004053, 
0.101916, 0.121514, -0.113992, -0.027268, 0.064805, -0.162129, 0.016472, 0.074355, -0.227617, -0.012240, 
0.034851, -0.156853, -0.110734, -0.110982, -0.082526, -0.287505, -0.003926, -0.329562, -0.257016, -0.246706, 
-0.087844, 0.067786, -0.169429, 0.012649, 0.055095, -0.047739, 0.037222, -0.024188, 0.091670, -0.018879, 
0.135049, 0.149137, 0.012292, 0.009951, 0.001602, -0.117091, -0.133833, -0.127746, 0.041412, 0.109892, 
0.025780, 0.091631, -0.068032, -0.206715, -0.242434, -0.400082, -0.301828, -0.154787, -0.353177, -0.144260, 
-0.162837, -0.138297, -0.298768, -0.103580, -0.154933, 0.255163, 0.131304, 0.163232, -0.074636, 0.110055, 
-0.058737, -0.150729, -0.097588, 0.103943, 0.008225, 0.002216, 0.336083, 0.198521, 0.215671, 0.092462, 
0.029445, 0.001529, 0.204685, -0.195372, -0.019153, -0.156717, 0.206171, -0.025336, -0.040582, -0.015182, 
-0.000384, 0.115446, 0.241249, 0.253467, 0.351016, 0.069978, -0.022591, -0.156993, 0.029734, -0.186060, 
0.064114, -0.091727, 0.036031, 0.196096, 0.388942, 0.186430, 0.165791, -0.032638, -0.080096, 0.069287, 
0.062576, 0.129451, 0.154167, -0.209375, -0.361465, -0.038849, -0.064872, 0.030874, 0.063591, 0.233269, 
0.003960, 0.375510, 0.320510, 0.188667, -0.062381, -0.168314, -0.050671, 0.110664, 0.199109, 0.054263, 
-0.038002, -0.006649, 0.020590, -0.020041, -0.080781, 0.057718, 0.073344, -0.165908, -0.001781, 0.317319, 
0.343322, -0.347757, -0.229803, -0.098418, -0.040374, 0.002222, 0.103407, 0.210747, 0.276438, 0.488667, 
0.344689, 0.174506, 0.170270, 0.018099, 0.102854, 0.031680, 0.086418, 0.037523, 0.177566, 0.110365, 
0.169386, 0.151742, -0.006188, 0.379876, 0.054210, 0.246165, 0.151196, 0.573344, 0.327200, -0.286281, 
-0.473734, -0.238627, -0.086745, -0.197706, -0.036237, 0.034839, 0.372567, 0.321913, 0.334668, 0.203564, 
0.140319, 0.007123, -0.053392, 0.093677, 0.187479, -0.019539, -0.020278, -0.132085, 0.188653, 0.210260, 
0.053287, -0.008831, 0.192682, 0.154975, 0.251307, 0.368897, -0.099976, -0.124877, 0.122729, -0.018424, 
-0.222623, -0.138934, 0.048774, 0.122991, 0.356871, 0.459798, 0.081525, -0.023913, 0.011589, -0.124674, 
0.053598, 0.105871, -0.060233, 0.010499, -0.014304, 0.134229, 0.037970, 0.084621, 0.147481, 0.192447, 
0.175839, 0.143061, 0.299876, 0.136631, -0.222988, -0.060172, 0.172895, -0.192175, 0.026917, -0.093476, 
-0.233467, 0.012057, 0.454729, 0.237456, 0.027485, -0.219124, 0.041120, -0.029381, 0.041987, -0.062480, 
-0.089150, 0.044480, 0.027589, 0.127895, -0.126995, -0.088041, -0.277789, -0.040290, 0.023008, 0.130311, 
0.164224, -0.029485, -0.291028, -0.027453, -0.188455, -0.047125, -0.269605, -0.018964, 0.117935, 0.266814, 
0.264267, 0.404327, 0.004542, -0.190018, 0.003950, -0.150731, 0.077286, -0.170191, -0.095874, 0.078869, 
-0.145495, -0.231062, -0.360114, -0.333283, -0.254522, -0.104820, 0.099999, 0.002005, -0.106554, -0.103550, 
-0.157676, -0.060172, -0.205505, -0.190983, 0.102075, 0.000145, 0.311054, 0.332809, 0.325087, 0.191786, 
0.176323, -0.074292, -0.064013, 0.124378, 0.147482, 0.105994, 0.019363, -0.129514, -0.165742, -0.286810, 
-0.251587, -0.203060, -0.162023, -0.295740, -0.165145, -0.153728, 0.055106, -0.525560, -0.437091, -0.162083, 
-0.207682, -0.112194, -0.111702, 0.113779, 0.317752, 0.200167, 0.052122, 0.088607, -0.085223, -0.229548, 
-0.188938, 0.045047, -0.025860, 0.027491, 0.013078, -0.006926, -0.035035, -0.071148, -0.094979, -0.085671, 
0.010076, 0.129385, -0.154034, 0.017777, -0.117809, -0.168570, -0.419545, -0.231394, -0.149727, 0.052532, 
0.107339, 0.177164, 0.211043, 0.158261, -0.012652, -0.065360, 0.018981, -0.297990, -0.132157, -0.101546, 
-0.063370, 0.057063, 0.145027, 0.143403, -0.002852, -0.235806, 0.067225, 0.036823, 0.119129, 0.072890, 
0.056008, 0.133853, 0.013485, -0.333826, -0.338998, -0.010811, 0.112808, 0.292359, 0.057772, 0.176233, 
0.140300, -0.061720, 0.050003, 0.065564, -0.200246, -0.412576, -0.010501, -0.159428, 0.037121, -0.046992, 
-0.038806, -0.244652, -0.255667, 0.003315, 0.138161, 0.052813, 0.171686, 0.243345, 0.484555, 0.246856, 
0.475493, -0.139604, -0.267056, -0.034374, 0.170564, 0.138104, 0.232591, -0.121610, -0.005603, -0.126560, 
0.136799, -0.083584, -0.082293, -0.150483, -0.099732, 0.110181, -0.086755, 0.075712, 0.101962, -0.169195, 
-0.228413, -0.031442, 0.046872, 0.323178, 0.139596, 0.183780, 0.135214, 0.121113, 0.389990, 0.318450, 
0.195698, 0.153769, -0.136691, 0.172802, 0.026882, -0.069494, -0.146295, -0.173901, -0.009562, -0.212165, 
-0.120877, -0.121382, 0.046167, 0.047277, 0.059512, 0.020242, -0.153780, -0.095014, -0.230878, -0.091662, 
0.104585, 0.111984, 0.122803, 0.051033, 0.007381, 0.230121, 0.400799, 0.301266, 0.017972, 0.207136, 
-0.018550, 0.093854, 0.028013, -0.017201, -0.167065, -0.213353, -0.174244, -0.272954, -0.266360, -0.229449, 
0.007401, -0.033444, 0.064848, -0.085656, -0.135778, -0.119674, -0.201803, -0.261050, -0.205604, -0.011187, 
-0.130427, 0.036152, 0.063532, 0.298547, 0.368771, 0.333401, 0.274552, 0.015479, 0.041947, -0.238174, 
-0.140773, -0.157327, -0.275403, -0.306418, -0.129961, -0.192538, -0.008084, -0.031565, 0.090106, -0.129435, 
0.142697, -0.114494, -0.096198, -0.016568, 0.021559, -0.150007, -0.317052, -0.199565, 0.025953, 0.098391, 
0.053575, 0.103057, 0.249503, 0.167618, 0.290821, 0.208182, 0.161260, -0.117720, -0.200505, -0.181960, 
-0.663200, -0.378894, -0.084031, -0.104897, -0.036645, -0.069708, -0.017078, 0.060424, -0.183445, 0.014290, 
-0.107757, 0.094229, -0.001416, -0.212602, -0.045328, -0.099373, 0.055315, 0.016051, 0.108271, 0.165352, 
0.208719, 0.330760, 0.223783, 0.326543, 0.269014, 0.005168, -0.087382, -0.154806, -0.159388, -0.292224, 
-0.345614, -0.015121, -0.098145, -0.066816, 0.101434, 0.178276, -0.073343, -0.080515, 0.050382, -0.036743, 
0.166503, -0.091341, -0.123118, -0.076727, 0.001253, -0.144867, 0.040184, -0.039298, 0.032635, -0.027490, 
0.000934, 0.160400, 0.158666, 0.027712, 0.147355, -0.009446, 0.022511, -0.046694, 0.041721, 0.109581, 
-0.124781, 0.049118, 0.120771, -0.034534, 0.004258, -0.093853, -0.054604, 0.054226, -0.141067, -0.174179, 
-0.027146, -0.129576, 0.014984, 0.242915, -0.041201, 0.263157, 0.029069, -0.083103, 0.058117, 0.036502, 
0.232592, 0.157479, 0.152382, -0.053145, 0.148920, 0.112122, 0.116055, -0.005159, 0.262587, -0.059281, 
-0.009421, 0.019407, 0.203764, -0.035579, 0.048576, -0.240264, -0.030513, 0.086421, 0.040722, -0.033078, 
-0.198182, 0.267988, -0.046391, -0.180909, 0.047643, 0.033086, -0.026826, 0.229022, 0.019714, -0.025340, 
-0.063840, -0.114330, -0.014678, -0.014470, -0.012372, 0.068832, 0.022370, -0.117105, 0.198357, -0.150365, 
0.016250, 0.043314, -0.080939, -0.182165, -0.049440, 0.017287, -0.149519, 0.203274, -0.022930, -0.066092, 
0.166961, 0.068187, 0.127031, -0.025530, 0.020172, 0.130760, -0.130338, 0.062879, -0.051607, 0.047590, 
0.068093, -0.050083, -0.044905, -0.017360, -0.042825, -0.046662, -0.038784, 0.039970, -0.084126, 0.001520, 
-0.096533, 0.179491, 0.133259, 0.025765, 0.187735, -0.142978, -0.112615, 0.028570, -0.025748, 0.049449, 
-0.104762, 0.055481, 0.047564, -0.047698, -0.059516, 0.078907, -0.098029, 0.119742, 0.112080, -0.113102, 
-0.072241, 0.001535, -0.060772, 0.087570, 0.002568, 0.046764, -0.004166, 0.066937, -0.129503, -0.078410, 
0.015879, -0.102010, 0.143876, -0.020974, -0.010918, -0.021568, 0.088477, -0.016777, -0.173493, -0.141735, 
-0.069113, -0.135085, 0.007163, 0.021010, -0.013976, 0.035450, 0.205458, -0.101797, -0.135386, 0.034214, 
-0.179214, 0.051373, -0.054406, 0.061334, -0.064834, -0.004343, 0.196490, 0.073973, -0.125451, -0.015849, 
0.051485, 0.105581, 0.079619, 0.024388, -0.027945, 0.169385, -0.027069, -0.202839, -0.203165, -0.188751, 
-0.094379, -0.056543, 0.066934, 0.119454, 0.004306, 0.092897, -0.037503, -0.001583, 0.084763, -0.058812, 
-0.080045, 0.165553, -0.006724, -0.099918, 0.107880, 0.062098, 0.281881, -0.254994, 0.085346, -0.065693, 
0.122109, 0.198827, 0.143779, 0.067022, -0.018127, -0.111556, -0.113707, -0.113287, -0.265246, -0.030979, 
-0.160943, -0.176482, -0.158105, -0.170865, -0.107592, -0.327294, -0.009739, -0.011802, -0.162094, -0.208788, 
0.181828, 0.055247, 0.301140, -0.080780, -0.084184, -0.003106, -0.042108, 0.105022, 0.094516, -0.010846, 
0.058551, 0.196262, 0.324759, 0.163448, 0.202253, 0.070802, 0.115834, 0.342723, 0.072548, 0.167727, 
0.088241, -0.242115, -0.142702, -0.058731, -0.165441, -0.059722, 0.101806, -0.158160, -0.029396, -0.071467, 
-0.029141, -0.014929, -0.110303, -0.162286, -0.223878, 0.057544, -0.006385, -0.049089, -0.053277, -0.027512, 
0.011302, 0.023354, 0.036167, 0.129465, -0.076105, 0.168702, 0.003881, 0.088391, 0.076776, 0.064441, 
-0.067765, 0.056495, -0.125272, 0.135132, -0.094658, -0.067833, -0.052377, -0.004833, 0.051516, -0.124162, 
-0.104309, -0.038879, -0.122524, -0.185288, 0.070190, -0.116084, -0.098362, 0.000900, -0.030170, -0.012582, 
0.056617, 0.022902, 0.012428, -0.042785, -0.049958, -0.168960, -0.417862, -0.111896, -0.190511, -0.051796, 
-0.270736, 0.067441, 0.017837, 0.031900, 0.052312, -0.016054, 0.047291, -0.075439, -0.087311, -0.257464, 
-0.234308, -0.338546, -0.006531, -0.100107, 0.019066, -0.205246, -0.176375, -0.066791, -0.119526, -0.148483, 
0.086215, -0.183441, -0.316086, 0.007143, -0.039468, -0.002424, 0.002476, 0.034020, -0.078625, -0.000454, 
0.135342, -0.088859, 0.132732, 0.124315, -0.137111, -0.135838, -0.196984, -0.070745, -0.005878, -0.157694, 
-0.111905, 0.017792, 0.199346, 0.106920, -0.053564, 0.226223, -0.142735, -0.291975, -0.197849, -0.174995, 
-0.108358, -0.124125, 0.003011, -0.157144, 0.084770, 0.125568, -0.159346, -0.088023, -0.178934, -0.171542, 
-0.067592, -0.090286, -0.186578, -0.278249, -0.224506, -0.237512, 0.077133, -0.083424, 0.094346, 0.027656, 
-0.089223, 0.144033, 0.069217, -0.356299, -0.434939, -0.512813, -0.493162, -0.280841, -0.025276, -0.231051, 
-0.113883, -0.222276, -0.198480, -0.115855, 0.050409, -0.280858, 0.072695, -0.002195, 0.013396, -0.114545, 
-0.090372, -0.245096, -0.250362, 0.145199, 0.163623, -0.011723, 0.228790, -0.002869, -0.151530, -0.017366, 
-0.077618, -0.439890, -0.683368, -0.790992, -0.484555, -0.215644, -0.431093, 0.046632, -0.005054, 0.036358, 
0.191232, -0.005344, 0.096222, -0.101598, 0.009847, -0.004345, -0.215127, 0.159788, -0.185394, -0.205710, 
-0.252491, -0.041578, 0.093974, -0.189550, -0.232136, 0.023904, 0.055038, 0.207827, 0.257565, 0.228510, 
-0.221340, -0.158597, -0.285397, -0.107476, -0.153125, 0.286584, 0.186158, 0.413109, 0.430858, 0.466754, 
0.237203, -0.129002, -0.096158, -0.095923, -0.015595, 0.070760, 0.114606, -0.109758, -0.067300, 0.066475, 
0.036871, 0.005198, 0.215447, 0.134350, 0.350144, 0.704607, 0.602827, 0.507021, 0.161297, 0.282066, 
0.193524, 0.150661, -0.089989, 0.196252, -0.131179, 0.057167, 0.240491, 0.378993, -0.031560, -0.059304, 
0.142444, 0.058392, -0.038604, -0.183208, 0.140007, -0.004446, -0.088664, -0.006451, 0.061015, 0.242748, 
0.208734, 0.204692, 0.299547, 0.364101, 0.359246, 0.394953, 0.097658, -0.035253, 0.145715, 0.099724, 
-0.165680, -0.377349, -0.004948, -0.065738, -0.032027, 0.019251, 0.142229, -0.045724, 0.102424, -0.076030, 
0.079469, 0.040095, 0.142855, -0.142266, 0.202779, 0.366282, 0.114537, 0.241543, 0.347938, 0.222195, 
0.104790, 0.094140, 0.223237, 0.198729, -0.014186, 0.101165, 0.283632, 0.018160, -0.179913, -0.326055, 
-0.145286, -0.331277, -0.217647, 0.067601, 0.271767, 0.008191, 0.023782, 0.047450, 0.175689, -0.060398, 
0.065323, 0.157469, -0.020962, 0.413605, 0.043897, 0.027005, -0.009780, 0.170813, 0.128593, 0.411519, 
0.252778, 0.041168, 0.144872, -0.033561, 0.209405, 0.161785, 0.139806, -0.116250, -0.082582, -0.220710, 
-0.043407, 0.096127, 0.234991, 0.050734, 0.044931, -0.100517, -0.103688, -0.043347, 0.303277, 0.051625, 
0.134187, 0.169842, 0.085169, 0.208616, -0.053606, 0.188976, 0.074538, 0.145837, -0.014459, -0.180570, 
-0.134706, 0.025149, 0.303149, 0.096902, -0.023075, 0.155604, -0.077477, 0.119848, 0.015336, -0.000627, 
-0.023709, 0.025376, 0.005457, 0.108967, -0.026071, -0.041225, 0.017618, -0.030680, -0.030831, 0.115614, 
0.219461, 0.217467, 0.051010, 0.043188, 0.264856, 0.160248, -0.083377, -0.150343, -0.036803, 0.085519, 
0.300116, 0.046940, 0.207137, 0.133294, -0.083575, 0.024922, 0.006667, 0.302487, 0.358740, 0.066793, 
-0.005972, 0.138635, 0.101096, -0.013828, -0.071679, 0.252726, 0.120107, 0.137107, 0.336304, 0.004636, 
0.034410, 0.090116, -0.057765, -0.077802, -0.105349, -0.232884, -0.108906, 0.085244, 0.125214, 0.267187, 
0.364864, 0.008061, 0.112127, 0.191032, 0.194781, 0.461528, -0.078462, 0.031331, -0.190969, -0.100405, 
0.061802, -0.097890, 0.188215, -0.058945, 0.098898, 0.415572, 0.022124, 0.041034, -0.213257, -0.020521, 
0.071445, -0.009725, -0.000151, -0.079754, -0.248635, 0.175446, 0.113894, 0.065419, 0.175361, 0.152253, 
0.411084, 0.222787, 0.312791, 0.224206, 0.064612, 0.048285, 0.069054, -0.085458, 0.103056, -0.049899, 
0.072575, -0.015415, -0.076211, 0.148547, 0.188432, -0.007764, -0.009446, 0.028974, -0.066045, 0.061142, 
-0.102944, -0.051199, -0.031178, -0.118541, -0.041153, 0.016073, 0.034869, 0.247740, 0.328405, 0.235942, 
0.378257, 0.254897, 0.153730, -0.095342, -0.009117, -0.106444, -0.003249, -0.140728, 0.138650, -0.113778, 
0.095128, -0.241266, 0.079971, -0.045118, 0.095712, -0.011040, -0.001618, 0.185332, 0.248111, 0.396721, 
-0.013837, -0.205866, -0.074981, -0.045705, 0.209833, 0.030593, 0.308491, 0.375655, 0.412415, 0.258356, 
0.081058, 0.018166, -0.059326, -0.017884, -0.006692, 0.112167, -0.105582, -0.244361, -0.030505, -0.075401, 
-0.333972, -0.180642, 0.282413, 0.104245, 0.167259, 0.134748, 0.146998, 0.172952, 0.250795, -0.023779, 
0.176607, -0.099049, 0.258725, 0.177985, 0.352786, 0.421322, 0.342858, 0.171414, -0.072971, -0.061674, 
0.014579, -0.092232, -0.013375, 0.052560, 0.122012, 0.022484, -0.135469, -0.345431, -0.164682, -0.115491, 
0.010589, -0.047184, 0.003156, 0.158405, 0.049713, -0.001849, -0.046610, 0.082131, 0.233633, 0.003540, 
0.290130, 0.220305, 0.268379, 0.142708, 0.374121, 0.190391, 0.048350, 0.030696, 0.023279, -0.045553, 
-0.095392, -0.052069, -0.187129, -0.030242, -0.178724, -0.074730, 0.032855, -0.086303, -0.173858, -0.311986, 
-0.166380, -0.228563, -0.374882, -0.231534, -0.112948, -0.063908, 0.208739, -0.071412, -0.112043, 0.025130, 
0.159093, 0.140985, -0.019105, -0.048550, -0.118558, 0.095385, -0.055929, 0.073087, 0.103263, 0.060859, 
0.219114, 0.028256, 0.153729, 0.171758, -0.020524, -0.015988, -0.167318, -0.024368, 0.061207, -0.105186, 
0.023391, 0.011134, 0.036509, -0.118009, -0.063846, -0.110784, -0.321937, -0.087989, -0.032260, 0.039173, 
-0.121211, -0.131376, 0.248139, 0.041240, -0.059152, -0.067541, 0.069997, 0.024438, -0.052148, 0.020260, 
0.138478, 0.038731, 0.038038, -0.012758, 0.126675, 0.201863, 0.092273, 0.130038, -0.032716, -0.112122, 
-0.020659, 0.125973, 0.140492, -0.117641, -0.055104, 0.179994, 0.130875, -0.092157, -0.125432, 0.085883, 
0.171980, 0.024599, 0.140472, 0.111538, 0.022877, -0.006520, -0.111166, -0.201515, -0.003206, 0.004253, 
-0.003167, 0.006829, -0.023349, -0.238762, -0.039994, 0.065690, 0.070103, 0.078449, -0.009385, 0.096289, 
-0.175399, -0.052922, 0.000620, -0.041598, -0.044966, 0.085359, 0.241095, -0.059302, -0.014027, 0.185278, 
-0.076253, 0.049651, -0.005304, -0.006579, -0.122706, -0.018664, -0.122223, 0.067209, -0.134653, 0.026127, 
-0.052934, 0.048627, -0.148064, 0.119393, 0.122397, 0.091481, -0.105340, 0.027162, -0.091628, -0.023413, 
0.037833, 0.028034, -0.160523, 0.126095, 0.035401, 0.050862, 0.118828, -0.004141, -0.017138, -0.076069, 
0.056712, -0.047432, -0.008903, 0.175359, -0.030097, -0.027652, -0.180925, 0.172614, -0.136484, -0.308075, 
-0.210681, -0.326906, -0.159118, -0.385433, -0.313194, -0.420971, -0.239342, 0.023952, -0.072550, 0.090436, 
-0.085750, -0.087298, -0.061408, -0.056021, 0.101160, -0.047304, -0.033687, 0.172840, 0.141393, 0.012315, 
-0.040992, 0.167010, 0.006488, -0.051312, -0.114615, -0.085768, -0.195729, -0.216521, -0.482382, -0.482309, 
-0.582257, -0.610917, -0.532639, -0.336071, -0.358137, -0.139261, -0.004858, -0.057966, -0.102830, -0.051315, 
0.012487, -0.049536, 0.053568, -0.182264, -0.019811, 0.056840, 0.074867, 0.028620, -0.021816, 0.062666, 
0.099668, 0.035806, -0.006710, 0.139703, -0.075739, -0.121665, -0.033505, 0.019536, 0.179994, -0.039650, 
0.009940, -0.056000, 0.061567, -0.028695, 0.331646, 0.067788, 0.246578, 0.134071, -0.068350, -0.168955, 
0.014924, -0.093051, 0.026539, 0.221036, 0.095736, 0.005184, -0.044807, -0.025797, -0.067186, 0.210771, 
0.028717, 0.003576, 0.000480, 0.114984, 0.019367, 0.241315, 0.165850, -0.047320, 0.022582, 0.009594, 
-0.075647, -0.071286, -0.040746, -0.152625, 0.129198, 0.116090, 0.119943, 0.290155, 0.049824, 0.101550, 
0.009177, 0.114944, 0.123391, 0.093363, -0.042311, 0.105308, -0.192833, -0.007713, 0.107735, 0.210673, 
0.039676, 0.152611, 0.108395, 0.214909, 0.265169, 0.181825, 0.155566, 0.112358, -0.057541, 0.274450, 
-0.000610, 0.245121, 0.166241, -0.059871, -0.015246, 0.301946, 0.551750, 0.168997, 0.037145, -0.000612, 
-0.052380, -0.104142, -0.110657, -0.161186, 0.002140, 0.049182, 0.084046, -0.034155, 0.257339, -0.046848, 
0.181881, 0.088161, 0.268408, 0.009497, -0.041588, 0.099044, 0.246417, 0.109731, 0.073648, 0.131329, 
0.156661, 0.096891, 0.149497, 0.303917, 0.263821, 0.236633, 0.136362, 0.009571, -0.151717, 0.092758, 
-0.095045, 0.074467, -0.125429, -0.091248, -0.148145, 0.090426, 0.044853, 0.217995, -0.164041, 0.078502, 
0.099333, 0.084702, 0.114123, -0.008037, -0.053857, 0.015460, 0.179852, 0.199881, 0.246670, 0.090368, 
0.003697, 0.285608, 0.554743, 0.389677, -0.017858, 0.047379, 0.174574, 0.019918, 0.187212, -0.071414, 
-0.083628, -0.051804, 0.027006, 0.059945, 0.000220, 0.138715, -0.052625, 0.048311, 0.056050, 0.106836, 
-0.141789, -0.138918, -0.042840, 0.167191, 0.110903, 0.012724, 0.074420, 0.226380, 0.308614, 0.123370, 
0.399742, 0.337586, 0.169647, -0.067244, 0.058782, 0.177733, 0.199861, 0.061452, 0.322005, 0.017710, 
0.125605, 0.224287, -0.074090, 0.133001, 0.063162, 0.185746, 0.054326, 0.058486, -0.006734, 0.101153, 
-0.061851, -0.156058, 0.088741, 0.111293, 0.122543, 0.132835, 0.088143, 0.178611, 0.532655, 0.422407, 
0.228429, -0.112593, -0.204648, 0.050306, 0.026838, 0.119687, 0.220570, 0.461314, 0.258133, 0.306792, 
0.113905, 0.269443, 0.110283, 0.120331, 0.178318, 0.318510, 0.153802, 0.364985, 0.207637, 0.306019, 
0.131717, 0.012213, 0.071657, -0.195911, -0.043573, -0.175535, 0.091188, 0.192930, 0.111570, -0.020989, 
-0.069254, 0.079306, 0.039255, 0.068739, 0.333676, 0.137872, 0.414482, 0.451798, 0.323033, 0.122907, 
0.403502, 0.285802, 0.152908, 0.133455, 0.350244, 0.225046, 0.163110, 0.054831, 0.088764, 0.118421, 
-0.020440, 0.044477, -0.130095, -0.291767, -0.524318, -0.118702, 0.010156, 0.031624, 0.170539, -0.016315, 
-0.106008, 0.143753, 0.427535, 0.327655, 0.253639, 0.207760, 0.174631, 0.072390, 0.127510, 0.075439, 
0.020110, 0.045549, 0.394728, 0.256394, 0.199974, 0.148734, 0.082263, 0.057217, 0.227721, -0.093850, 
-0.063564, -0.416317, -0.377672, -0.127775, -0.247740, 0.076004, 0.079952, -0.226306, -0.013819, 0.125235, 
0.243858, 0.057091, -0.072888, -0.109299, 0.090182, 0.005403, -0.101455, -0.172087, 0.060779, 0.224274, 
0.074552, 0.269383, 0.222273, 0.441728, 0.160458, -0.004560, 0.024760, -0.005726, -0.162588, -0.403416, 
-0.292212, -0.143981, 0.181075, -0.098918, -0.038765, 0.183302, -0.019860, 0.139524, 0.045689, -0.307077, 
-0.428563, -0.302311, -0.163633, -0.070661, -0.214268, -0.044406, -0.024077, 0.092924, 0.067568, 0.126059, 
0.202940, 0.165180, -0.022395, -0.060682, -0.082246, -0.090609, -0.008918, 0.060007, -0.298829, -0.231130, 
-0.094205, -0.053618, -0.100174, 0.136191, 0.071695, -0.040557, -0.292587, -0.229812, -0.115649, -0.261439, 
-0.166802, -0.443472, -0.150782, -0.197210, 0.126084, 0.083979, 0.101888, 0.089161, 0.137385, 0.025270, 
-0.023329, -0.192636, -0.082026, -0.129556, -0.192611, 0.092812, -0.297224, -0.567827, -0.137550, -0.237737, 
-0.028210, -0.014126, 0.033010, -0.027562, -0.257704, -0.255859, -0.052995, -0.185930, -0.168981, -0.205757, 
-0.333409, -0.388553, -0.121840, 0.069809, 0.042156, 0.129565, 0.001102, 0.011353, -0.065920, -0.138340, 
-0.152056, -0.137173, -0.092105, -0.179510, -0.285542, -0.419107, -0.143713, -0.035805, 0.086979, 0.047614, 
0.182881, 0.159145, -0.034032, -0.329862, -0.015944, -0.222814, -0.102018, -0.172299, -0.179312, -0.053710, 
-0.343249, 0.019580, 0.088008, 0.161007, -0.079936, -0.087243, -0.158340, -0.086783, -0.109025, -0.067216, 
-0.281010, -0.212766, -0.249309, -0.277298, 0.013699, 0.023751, 0.095947, 0.027714, 0.128606, 0.007390, 
-0.211480, -0.068151, -0.175644, -0.196532, -0.142673, -0.261967, -0.251716, -0.475037, -0.499981, -0.194252, 
-0.086184, -0.159867, -0.047828, -0.166650, -0.065168, 0.048635, 0.094605, -0.240605, -0.353805, -0.164608, 
-0.398115, -0.122978, 0.085173, -0.123995, 0.010474, -0.164856, 0.070970, -0.000640, -0.102452, -0.116557, 
-0.198720, -0.340177, -0.232060, -0.322662, -0.315748, -0.211054, -0.465825, -0.203600, -0.201334, -0.081486, 
-0.153880, 0.036016, -0.123583, 0.041407, -0.038777, 0.051350, 0.009845, 0.004731, -0.292284, -0.033565, 
0.048576, 0.031636, -0.222961, -0.005344, -0.100109, -0.166010, -0.185978, -0.250597, -0.025474, -0.066289, 
-0.095143, -0.179465, -0.208050, -0.267519, -0.252794, -0.306761, -0.081838, -0.083958, -0.139310, -0.232951, 
-0.301717, -0.183936, 0.053304, 0.000906, -0.081160, -0.253692, -0.099642, 0.125535, -0.019649, 0.008117, 
0.017536, -0.025775, 0.005434, -0.059314, -0.074342, -0.108500, -0.044988, -0.090912, 0.069060, -0.202839, 
-0.103863, -0.009351, -0.036591, -0.049667, 0.048360, -0.081923, -0.038124, -0.001912, -0.116189, -0.016165, 
-0.406613, -0.100894, -0.067839, -0.126735, -0.029563, 0.216975, -0.052137, 0.150756, -0.092937, -0.057072, 
-0.038411, 0.091952, -0.075652, 0.029692, -0.101902, -0.259811, -0.126848, -0.290159, -0.161507, -0.126478, 
-0.165116, -0.179955, -0.104503, 0.072384, -0.061342, 0.007423, -0.053087, -0.071045, 0.005279, -0.003264, 
-0.175134, -0.091454, -0.013684, 0.064969, 0.183970, -0.010544, 0.118342, 0.049417, -0.149287, 0.091677, 
-0.045280, 0.017717, -0.063708, 0.166717, 0.148510, 0.034399, -0.033485, -0.061246, 0.081322, -0.030289, 
-0.086212, -0.088145, 0.202808, 0.139719, 0.035183, 0.258683, 0.095648, 0.204930, -0.088991, 0.009150, 
0.127899, -0.109702, -0.096719, 0.026526, 0.001944, 0.030089, 0.014279, -0.071678, 0.034645, -0.131345, 
-0.014725, 0.276343, 0.273109, 0.319590, 0.594906, 0.584343, 0.311072, 0.465279, 0.516840, 0.493718, 
0.385510, 0.402127, 0.323869, 0.387678, 0.161943, 0.099504, 0.073866, 0.080781, 0.144210, -0.113573, 
-0.021070, 0.107831, 0.025006, -0.106714, 0.090726, -0.140908, -0.159344, 0.018304, -0.065422, 0.077055, 
-0.125773, 0.081325, 0.029902, 0.157477, -0.016311, 0.113151, 0.222151, 0.140730, 0.077866, 0.102767, 
-0.111392, 0.082753, 0.077462, 0.117814, -0.015207, 0.063163, -0.014657, 0.172190, -0.125470, -0.146899, 
0.056282, 0.096773, -0.184221, 0.027658, -0.100924, -0.063421, 0.070379, -0.033122, 0.033875, 0.152120, 
-0.059444, 0.008096, -0.118724, 0.074805, -0.166791, -0.050871, -0.079117, 0.039308, -0.015484, -0.017305, 
-0.089429, 0.235134, 0.137963, -0.049790, -0.011591, 0.199082, -0.112951, -0.061345, 0.094207, -0.130158, 
0.177982, -0.058559, 0.014532, -0.037940, -0.040474, 0.055524, 0.038303, -0.048921, 0.143079, 0.037810, 
0.017092, 0.069355, 0.039312, -0.097511, 0.033299, 0.190807, 0.028554, 0.053129, -0.023703, -0.046157, 
-0.157997, -0.014766, -0.027835, -0.279453, 0.148331, 0.143641, 0.130277, -0.123063, 0.028001, 0.001684, 
-0.193315, 0.011452, -0.148120, -0.026359, -0.030061, -0.000514, 0.080279, 0.079314, 0.075256, -0.120520, 
-0.111043, -0.060734, -0.051367, 0.059731, 0.046348, 0.054210, 0.046772, 0.087548, 0.002995, -0.047850, 
-0.268924, -0.079104, 0.074157, -0.043542, 0.053466, 0.055919, 0.034573, 0.237231, -0.090904, 0.061567, 
-0.032862, -0.061969, 0.025620, -0.174919, -0.034697, 0.021796, -0.003362, -0.098795, -0.021561, -0.069760, 
-0.140665, 0.086344, 0.094502, -0.095501, 0.204399, -0.096932, 0.074912, 0.098905, -0.162852, -0.042674, 
0.132715, -0.004581, -0.143160, 0.117964, 0.036117, -0.134668, 0.115003, 0.045484, 0.066653, -0.022333, 
-0.039922, 0.089423, -0.094630, 0.067441, -0.003060, -0.025158, 0.119876, 0.080248, 0.234926, -0.011350, 
0.149115, -0.132071, 0.145612, -0.005785, 0.017828, -0.056100, 0.016016, -0.088739, -0.088885, 0.016671, 
0.094820, 0.106374, 0.282819, 0.134855, -0.100191, -0.106711, -0.156810, -0.135189, -0.309715, -0.206616, 
-0.111705, -0.116039, -0.146105, -0.068730, -0.226409, 0.334205, 0.092615, 0.185136, 0.105738, -0.000978, 
-0.139556, 0.037627, 0.207005, 0.033235, 0.041796, -0.173586, 0.133442, 0.073089, 0.073642, -0.025728, 
0.016731, -0.089379, 0.031798, 0.017313, -0.168393, -0.128239, -0.141874, 0.085473, 0.196097, 0.102320, 
-0.182260, 0.018673, 0.054177, -0.320282, 0.159698, 0.202056, 0.237896, 0.003301, 0.049832, 0.063502, 
0.337138, 0.087815, 0.011843, 0.117120, 0.043386, -0.090316, 0.037711, -0.048422, 0.055992, -0.220711, 
-0.333771, 0.051145, -0.150872, -0.116362, -0.002272, 0.126213, 0.013296, 0.143726, 0.074051, 0.063715, 
0.240886, -0.073210, 0.023887, 0.105362, 0.025857, 0.052586, 0.039054, 0.041317, 0.214352, 0.026772, 
0.211222, 0.193182, 0.204611, -0.013666, 0.000935, -0.027918, -0.073790, -0.031284, -0.234883, -0.268120, 
-0.126336, -0.035835, 0.094865, -0.014375, 0.243140, 0.221349, 0.200146, -0.015299, 0.142620, -0.047036, 
0.142637, 0.088574, 0.036209, 0.098729, 0.044093, -0.002886, 0.059689, 0.106920, 0.388620, 0.351185, 
-0.042928, -0.098700, -0.015602, 0.074718, -0.038014, -0.002784, -0.322862, -0.303814, -0.154768, -0.081334, 
0.044675, -0.091940, -0.001773, 0.152632, 0.173972, -0.043057, 0.266185, 0.102839, 0.043397, 0.048077, 
-0.067052, 0.003595, 0.030868, 0.127890, 0.025523, 0.295390, 0.369643, 0.297283, -0.098965, -0.106217, 
0.014844, 0.179503, 0.085377, -0.069311, -0.207743, -0.225064, -0.156478, -0.103168, 0.149989, 0.043309, 
0.203643, 0.301486, 0.190432, 0.286601, 0.012708, -0.162935, -0.145508, 0.004713, 0.094667, -0.047296, 
-0.142712, -0.040588, 0.056019, 0.407880, 0.841129, 0.398157, 0.154574, 0.014653, -0.067418, 0.080256, 
-0.052190, 0.050798, 0.017109, 0.058044, 0.130926, 0.039851, 0.220068, 0.155643, 0.061084, 0.390891, 
0.067139, 0.259255, 0.108580, -0.196284, -0.298511, -0.092258, -0.192420, -0.207887, -0.015051, -0.103204, 
0.064481, 0.328045, 0.691734, 0.463180, 0.198393, 0.004016, -0.062306, -0.049522, -0.000895, -0.116179, 
0.065758, 0.042871, 0.301321, -0.046057, 0.258506, 0.037421, -0.008548, -0.049122, -0.079220, -0.071778, 
-0.271513, -0.554511, -0.297508, -0.232573, -0.246437, -0.424476, -0.672808, -0.742442, -0.663493, -0.588700, 
0.209071, 0.087958, 0.088101, 0.194022, -0.034048, 0.080744, 0.139735, -0.226838, -0.061081, -0.007772, 
0.164444, 0.040798, -0.101956, -0.177817, 0.075192, 0.061375, -0.072944, -0.163117, -0.488612, -0.422930, 
-0.432187, -0.353512, -0.167276, -0.340739, -0.228855, -0.667327, -0.737628, -0.557186, -0.232511, -0.069157, 
0.004769, -0.082962, 0.038567, -0.228050, -0.019455, -0.058362, 0.003413, -0.094177, -0.109313, 0.047894, 
0.043800, -0.142384, 0.206581, 0.109358, -0.061645, -0.028969, -0.219003, -0.469728, -0.401696, -0.171902, 
-0.066946, -0.103448, -0.198103, -0.183291, -0.149582, -0.110348, -0.205039, 0.118342, 0.293207, 0.038934, 
-0.059033, -0.017356, 0.020121, -0.062425, 0.012986, -0.092108, 0.221435, -0.042315, 0.100989, 0.187238, 
0.312242, -0.235557, -0.204670, -0.061805, -0.299627, -0.163230, -0.293842, -0.232017, -0.292750, -0.524366, 
-0.144596, -0.078784, 0.005431, 0.066915, -0.018036, 0.032766, -0.016067, -0.193142, -0.041073, 0.053771, 
-0.187837, -0.341455, -0.076226, 0.022662, -0.017251, 0.087999, 0.223753, 0.065770, -0.057388, -0.187211, 
0.000361, -0.316029, -0.437365, -0.389005, -0.177986, -0.189006, -0.064916, -0.165616, 0.010862, -0.120156, 
-0.076123, 0.310595, 0.347813, -0.123570, -0.100634, -0.084492, 0.026874, -0.058282, 0.014414, -0.249785, 
0.137729, 0.090216, 0.063217, -0.286805, -0.347146, -0.063336, 0.132559, -0.077808, 0.012639, -0.258009, 
-0.386908, -0.254120, -0.353922, -0.129811, -0.258602, 0.026516, 0.023641, 0.060405, 0.144061, 0.208891, 
0.179113, -0.136655, 0.023970, 0.114182, -0.063741, -0.032185, -0.020019, 0.177501, -0.049576, 0.301612, 
0.213613, -0.147299, -0.272217, -0.298221, -0.050949, -0.043138, -0.366119, -0.567388, -0.268890, -0.050291, 
-0.003866, 0.174561, 0.299080, 0.115016, 0.144035, 0.035269, 0.006668, 0.141987, 0.206491, 0.045254, 
0.034377, -0.049675, 0.031258, 0.189177, 0.078042, -0.241210, -0.014602, 0.157861, 0.285797, 0.041093, 
-0.340242, -0.378098, -0.307144, -0.262772, -0.385801, -0.245536, 0.002062, 0.068665, 0.052914, 0.228272, 
0.055904, 0.039025, 0.170824, 0.085870, 0.063981, 0.309685, 0.340205, 0.040599, -0.059481, -0.077860, 
-0.010918, 0.046017, 0.118790, -0.215823, 0.092033, -0.015332, 0.166595, 0.242114, 0.203312, 0.078624, 
-0.124452, 0.259869, 0.314898, 0.287687, 0.310180, 0.232722, 0.036896, -0.116487, -0.059508, 0.115866, 
0.040168, 0.133779, 0.162051, 0.006230, 0.088155, -0.070501, 0.031805, 0.130319, 0.019081, -0.084529, 
0.075798, -0.031180, 0.026608, 0.248194, 0.048196, 0.017518, 0.208254, 0.036988, 0.219244, 0.485665, 
0.170351, 0.379654, -0.044667, -0.158598, 0.024896, 0.098277, 0.120343, 0.018123, -0.047906, -0.047286, 
0.230060, 0.316553, 0.285930, 0.082815, -0.016232, -0.116701, -0.011493, 0.119769, -0.028226, -0.079680, 
0.226419, 0.152535, 0.206849, -0.023989, 0.161048, 0.226553, 0.119732, 0.210379, 0.108327, -0.014654, 
0.136899, 0.312858, -0.079382, -0.049061, -0.062909, -0.091332, 0.119028, 0.270110, 0.451043, 0.223172, 
0.273021, 0.189425, -0.024858, 0.073341, 0.132775, 0.095599, 0.021977, -0.217133, -0.084971, 0.042745, 
0.030035, -0.081040, 0.149446, -0.005548, -0.015146, 0.153812, 0.079792, 0.196607, 0.001155, 0.049700, 
0.024473, 0.060167, 0.119241, 0.067682, -0.041849, 0.070679, 0.221034, 0.320339, -0.072347, 0.046255, 
-0.063829, 0.054739, -0.160387, 0.106157, -0.168597, -0.013761, 0.152670, 0.247447, 0.077551, -0.131093, 
0.053618, -0.029516, 0.027104, 0.129700, 0.028364, -0.060221, -0.042926, 0.074797, 0.010358, 0.055274, 
-0.407716, -0.136989, 0.175450, 0.057491, 0.095643, -0.126465, -0.090437, 0.111656, 0.039250, -0.178052, 
-0.062485, 0.066335, 0.116655, 0.114404, 0.110275, 0.051158, 0.038065, -0.013951, 0.187767, 0.156109, 
0.063241, 0.002555, 0.044255, 0.211629, 0.098779, 0.241789, -0.003185, 0.382452, 0.205007, -0.071461, 
-0.008139, -0.024517, -0.026713, 0.054730, 0.151773, 0.021733, -0.113847, 0.075125, -0.097566, -0.071791, 
0.026185, 0.053935, -0.008162, -0.042334, -0.022665, 0.098261, -0.080900, 0.064970, 0.110991, 0.249433, 
0.069196, 0.128071, 0.160506, 0.241580, 0.277134, 0.273610, 0.347539, 0.205944, -0.105611, 0.012602, 
-0.029876, 0.118109, -0.118705, -0.158905, -0.148003, -0.111512, -0.099152, 0.113042, -0.145372, 0.137750, 
0.094053, -0.010234, 0.110039, 0.123253, 0.160789, 0.002911, 0.082344, -0.026251, 0.351075, 0.225419, 
-0.056865, 0.234946, 0.219041, -0.121571, 0.046680, 0.085206, -0.116174, 0.113800, -0.039013, -0.064486, 
-0.147307, -0.042986, 0.070332, 0.083235, 0.187382, -0.006805, 0.030039, 0.066538, -0.082008, -0.064250, 
0.070983, -0.028241, -0.066042, -0.024818, 0.147578, 0.191419, 0.118245, 0.125290, -0.052923, -0.010651, 
0.039719, 0.180622, -0.143679, -0.052661, 0.025347, -0.076471, 0.090862, 0.043701, -0.077609, -0.098138, 
-0.179930, 0.028828, -0.016242, -0.058172, 0.128962, -0.022830, -0.070808, 0.019191, -0.038074, -0.001775, 
-0.103473, 0.131181, -0.010023, -0.250288, 0.115501, 0.004713, -0.016193, 0.103278, 0.039420, 0.104819, 
0.074277, 0.031641, 0.113751, 0.073929, 0.045807, 0.137301, -0.018660, 0.068479, -0.025777, 0.122654, 
0.088545, -0.002396, -0.136144, 0.018696, -0.150202, 0.148917, -0.074246, 0.099421, 0.006773, -0.056743, 
-0.022260, 0.103405, 0.030995, 0.076749, -0.009972, 0.024117, 0.006010, 0.037177, 0.141351, 0.087075, 
-0.024844, 0.049476, 0.048448, 0.071351, -0.085432, 0.021789, 0.070137, -0.003757, 0.214140, -0.071080, 
-0.038934, -0.029552, 0.000575, 0.033411, -0.063816, 0.005526, -0.078578, -0.040146, 0.154899, 0.131825, 
0.145474, -0.053024, -0.007003, 0.125930, 0.085131, 0.068550, 0.063932, 0.117451, 0.028446, 0.162599, 
-0.027927, -0.060426, -0.048311, 0.094793, 0.202678, -0.051278, 0.115461, -0.043252, 0.129185, 0.213144, 
-0.050765, -0.044326, 0.109131, -0.041399, -0.029618, 0.037131, 0.048547, 0.218552, 0.143653, 0.061697, 
0.309158, 0.236859, 0.207921, 0.184535, 0.180267, 0.422166, 0.210415, 0.176499, 0.055406, -0.101516, 
0.199230, 0.151104, 0.071966, 0.067007, -0.173088, 0.027439, -0.051325, -0.011544, -0.077024, 0.028744, 
0.110624, 0.110647, 0.160919, 0.167724, 0.044329, -0.077539, -0.126523, 0.049866, 0.062419, 0.045383, 
0.158665, 0.073648, 0.192719, 0.182604, 0.268289, 0.174830, 0.190004, 0.080536, 0.073715, -0.081854, 
-0.094813, 0.088274, 0.226117, -0.058152, 0.021275, -0.111248, -0.071091, 0.065222, 0.128888, 0.306862, 
0.315467, 0.219070, 0.274687, -0.115832, 0.055330, -0.091935, 0.022282, 0.200226, 0.077202, 0.156657, 
0.159248, 0.093272, 0.026287, 0.203670, 0.172407, 0.239764, 0.238706, 0.058767, -0.058079, 0.053905, 
0.003882, 0.020003, -0.038447, 0.192301, 0.056208, 0.053852, 0.032027, 0.073619, 0.258007, 0.118301, 
0.015282, -0.118662, -0.070116, -0.493851, -0.402117, -0.379539, -0.400368, -0.491785, -0.418064, -0.287386, 
0.090447, -0.004048, 0.155255, 0.252747, 0.176695, 0.137394, 0.009801, -0.090820, 0.057212, -0.012897, 
0.105896, -0.104301, 0.033445, -0.021315, 0.299858, 0.141117, 0.015401, -0.278310, -0.292199, -0.348678, 
-0.418779, -0.538139, -0.409162, -0.545922, -0.509529, -0.490413, -0.425769, -0.234680, -0.344314, -0.283590, 
0.023708, 0.066648, 0.151494, 0.086084, -0.044492, 0.108740, 0.241595, -0.008556, 0.112946, 0.075167, 
-0.014353, 0.192808, 0.057321, -0.180917, -0.227980, -0.094068, -0.232004, -0.261818, -0.418861, -0.345506, 
-0.418370, -0.385041, -0.699789, -0.270001, -0.316629, -0.256194, -0.153359, -0.148538, -0.144659, -0.029377, 
0.072544, 0.062035, -0.007830, 0.037193, -0.057683, -0.004280, -0.134419, -0.029694, 0.090747, 0.181685, 
-0.162251, -0.226407, -0.350064, -0.434578, -0.417064, -0.161878, -0.270566, -0.336062, -0.460711, -0.321073, 
-0.291463, -0.298865, -0.266928, -0.234188, -0.103701, -0.023312, -0.241441, -0.255533, 0.008795, 0.257068, 
0.027427, -0.050629, -0.069590, 0.062895, -0.028189, -0.227440, 0.044982, -0.063598, -0.186692, -0.222176, 
-0.055208, -0.313433, -0.202771, -0.300560, -0.144391, -0.273633, -0.498059, -0.101779, -0.014910, -0.019395, 
-0.139203, -0.230021, -0.193969, -0.234064, -0.450058, -0.207771, -0.030639, -0.032446, 0.227409, -0.062075, 
-0.003855, 0.135419, -0.180271, -0.286956, -0.128778, 0.021461, -0.256374, -0.040190, -0.275800, 0.129327, 
-0.113189, -0.228949, 0.059019, -0.363062, -0.151377, -0.109739, 0.023791, -0.177118, -0.139831, -0.029772, 
-0.228005, -0.329461, -0.237925, -0.631141, -0.392375, -0.006952, -0.149738, -0.039965, 0.106006, 0.171056, 
-0.034082, -0.246428, -0.229349, -0.322885, -0.238474, 0.087293, 0.202703, 0.024449, 0.239695, 0.135591, 
0.150736, 0.239479, 0.200683, -0.019748, 0.074045, -0.235309, -0.131701, -0.177593, -0.072688, -0.225179, 
-0.524115, -0.380800, -0.312400, -0.103240, 0.005109, 0.076167, 0.029037, -0.132456, -0.083907, -0.081048, 
-0.261495, -0.114923, 0.147132, 0.197352, 0.218997, 0.245165, 0.224999, 0.233904, 0.205644, -0.044154, 
0.161197, 0.218829, -0.012368, 0.215126, 0.043821, 0.067879, -0.058954, 0.005743, -0.191965, -0.050792, 
0.071606, 0.118987, 0.065029, -0.036355, 0.068167, 0.075417, 0.128647, -0.055275, 0.256843, 0.152560, 
0.040801, 0.008995, 0.212744, 0.150160, 0.036536, 0.092553, 0.269493, -0.003863, 0.258346, 0.136148, 
0.402392, 0.131745, 0.206913, 0.116326, 0.081030, -0.225868, 0.242491, -0.036958, -0.076429, 0.056298, 
-0.067687, 0.074968, 0.025556, 0.130189, 0.152416, 0.143735, 0.037862, 0.000845, 0.288452, 0.112607, 
0.053432, 0.016134, -0.175561, 0.113217, 0.189813, 0.509996, 0.466059, 0.004885, 0.412763, 0.168654, 
-0.125745, -0.020295, -0.071953, 0.005921, -0.066538, -0.088052, -0.078692, -0.123408, -0.016184, -0.027668, 
0.235757, 0.156753, 0.014101, 0.154986, -0.066005, 0.024320, 0.112880, 0.031602, -0.113611, -0.116712, 
-0.087107, -0.071265, 0.243650, 0.513550, 0.553748, 0.289864, 0.145904, -0.141475, 0.194565, 0.075857, 
0.118351, 0.122820, 0.168168, 0.073097, 0.110989, 0.323932, 0.038078, 0.129050, 0.131065, -0.069974, 
-0.073156, 0.109292, 0.062154, 0.067728, -0.112459, -0.090932, -0.109174, -0.270095, -0.082248, 0.033857, 
0.222293, 0.364874, 0.363364, 0.053292, 0.225320, -0.086231, -0.004227, 0.111018, 0.088520, 0.150949, 
0.060266, 0.010142, -0.050124, 0.013940, -0.005621, -0.145157, 0.018190, -0.062637, -0.216292, 0.124068, 
0.133565, 0.045566, -0.100777, -0.244823, -0.182712, 0.204144, -0.019112, -0.074762, 0.538599, 0.496825, 
0.163614, 0.075174, 0.149567, 0.036843, 0.090792, 0.177015, 0.070107, 0.123789, -0.136013, 0.166154, 
0.069551, 0.103127, 0.022946, 0.124823, -0.100342, 0.010795, -0.136875, 0.154931, 0.039563, 0.048047, 
-0.129898, 0.013360, -0.110559, 0.017840, 0.007497, 0.267119, 0.087385, 0.219511, 0.369215, 0.415516, 
0.386515, 0.158897, 0.354083, -0.037412, 0.222141, -0.018344, 0.013245, -0.001092, 0.081475, -0.167099, 
0.050740, -0.048193, -0.154573, -0.194136, 0.288692, 0.159219, 0.069384, -0.238044, 0.092479, 0.038732, 
0.274310, 0.189916, 0.256390, 0.135301, 0.126534, 0.166525, 0.304636, 0.540937, 0.413345, 0.350077, 
0.341614, 0.028830, 0.372878, 0.208455, -0.085106, 0.094055, 0.083051, -0.016623, -0.148240, 0.018761, 
0.150355, -0.047216, 0.115212, 0.178289, 0.098824, 0.115628, 0.024395, 0.114050, 0.304571, 0.065742, 
0.156225, 0.136384, 0.270867, 0.321129, 0.334223, 0.237917, 0.323135, 0.536649, 0.448441, 0.268795, 
0.164656, 0.165428, -0.015670, 0.047719, 0.003130, 0.013946, -0.017963, -0.008625, -0.039966, 0.195120, 
0.148158, 0.075989, 0.126643, 0.282732, -0.068084, -0.184632, -0.217296, -0.059448, 0.011846, 0.144465, 
-0.076833, 0.033180, 0.095756, 0.082529, 0.079041, 0.177906, 0.379767, 0.249121, 0.268549, 0.044761, 
-0.105427, -0.058803, 0.069785, 0.000321, -0.090596, 0.210311, 0.174347, 0.106612, 0.072536, 0.161087, 
0.074736, 0.080202, -0.013651, -0.221340, -0.173497, 0.256671, -0.142438, -0.031854, 0.011600, -0.134347, 
-0.166865, -0.085194, -0.020157, -0.016588, 0.045682, 0.132359, 0.093688, 0.006475, -0.140476, -0.077702, 
-0.071101, -0.010813, 0.096596, -0.016982, -0.044889, -0.043749, -0.099692, 0.193011, 0.144603, 0.073179, 
-0.087878, -0.117654, -0.003866, -0.057755, 0.070481, -0.083687, 0.076060, -0.113819, 0.099017, 0.010376, 
-0.086461, -0.216770, -0.164393, -0.220502, -0.117484, -0.136310, -0.149414, 0.130826, -0.009680, 0.083963, 
0.140163, -0.098276, 0.074536, -0.103493, 0.144408, -0.007003, -0.077896, -0.216624, -0.063426, -0.286813, 
-0.341407, -0.212890, -0.289230, -0.238582, -0.241332, -0.266092, -0.309073, -0.170793, -0.420948, -0.401249, 
-0.648485, -0.289527, -0.197388, -0.141168, -0.003906, -0.036929, 0.128026, 0.038802, -0.036403, -0.140986, 
0.084371, -0.038771, -0.249484, 0.077431, 0.113924, -0.014033, 0.123028, -0.064666, -0.253870, -0.030215, 
-0.291901, -0.082349, -0.385818, -0.263357, -0.407024, -0.358522, -0.329286, -0.082985, -0.342129, -0.068780, 
-0.211086, -0.027766, -0.073075, 0.108086, 0.017439, 0.007171, 0.032377, 0.124008, -0.065135, 0.041476, 
0.036695, 0.031191, 0.036221, 0.020735, 0.083928, 0.017068, 0.032652, -0.125495, -0.062315, 0.042194, 
0.103024, 0.020079, 0.007687, 0.107225, -0.078415, -0.177584, -0.015196, -0.099504, -0.112644, -0.122171, 
-0.052917, 0.144465, 0.031168, -0.175903, -0.010272, 0.000366, 0.048601, 0.148011, -0.095765, -0.044766, 
0.102294, -0.049122, 0.072601, -0.117074, 0.067880, 0.245071, 0.030156, -0.021632, -0.045412, -0.136124, 
0.087251, -0.030803, -0.028278, 0.144915, -0.154165, -0.045185, -0.129774, 0.011538, 0.217186, -0.022358, 
-0.000766, 0.152521, -0.077120, -0.045770, -0.083076, -0.114930, -0.039120, 0.056537, -0.087858, -0.089343, 
-0.114668, -0.000236, 0.072796, 0.068355, -0.143272, -0.087307, 0.099088, -0.123555, -0.038938, 0.092079, 
0.098703, -0.176365, 0.057945, -0.113110, -0.192861, 0.000462, 0.122628, -0.066455, 0.049610, 0.046121, 
-0.073295, -0.069869, -0.029426, -0.021028, 0.024652, 0.017847, -0.064562, -0.055790, -0.111888, 0.081642, 
0.118990, -0.125140, -0.220520, 0.033573, -0.202970, -0.117017, -0.140686, -0.093537, 0.046981, -0.065222, 
-0.136578, -0.243294, -0.061505, -0.176622, -0.096369, 0.134727, -0.218078, -0.005429, -0.021301, 0.044121, 
0.092622, 0.112983, 0.028994, -0.000144, -0.082188, 0.015472, -0.213854, -0.094946, -0.105645, -0.043468, 
0.123960, 0.023661, 0.033279, 0.117944, 0.135859, -0.039891, 0.084722, -0.292337, -0.223313, -0.416912, 
-0.197462, -0.322073, -0.284609, -0.076295, -0.187572, 0.047402, 0.085164, 0.192627, 0.006186, -0.003931, 
-0.087825, 0.171522, -0.073181, -0.021884, 0.099194, 0.221182, 0.146373, 0.129159, 0.320836, 0.087219, 
0.360587, 0.344038, 0.223012, 0.274163, 0.153615, 0.117656, -0.079872, -0.135278, -0.278211, -0.258978, 
-0.442958, -0.181808, -0.165828, -0.082483, 0.013529, 0.054808, 0.049761, 0.088401, -0.155778, 0.024569, 
-0.221219, 0.240466, 0.057886, 0.190103, 0.140503, 0.110678, 0.120141, -0.009085, -0.088601, -0.035370, 
0.092414, -0.033964, 0.314817, 0.162797, 0.060970, -0.029229, -0.030709, 0.038970, -0.134028, -0.309727, 
-0.136593, -0.132645, 0.086539, -0.098009, 0.176840, 0.243475, -0.119383, -0.064192, 0.139813, 0.145899, 
0.179238, 0.039918, 0.126570, 0.106065, 0.136677, -0.056411, 0.042135, 0.045448, 0.095573, 0.092912, 
0.201521, -0.043299, 0.131410, 0.063069, 0.073076, 0.009719, -0.064027, -0.045566, -0.161488, -0.034405, 
-0.045455, -0.004941, -0.010331, 0.024487, 0.052443, 0.179279, 0.126674, 0.170381, 0.288291, 0.101478, 
0.248451, 0.086916, 0.193958, 0.154746, 0.013123, -0.080290, -0.196097, 0.039857, 0.014262, -0.174781, 
0.065211, -0.056993, -0.186602, -0.020802, 0.178072, -0.119699, 0.074316, -0.033512, -0.036118, -0.025475, 
-0.145507, -0.072050, -0.060249, 0.059406, 0.078402, 0.263677, 0.063334, 0.283673, 0.260182, 0.128485, 
0.271091, 0.299433, 0.168335, 0.312397, 0.110195, 0.041991, 0.136095, 0.076607, -0.057467, 0.291449, 
0.067402, 0.182480, 0.203745, 0.074772, 0.222590, 0.162564, 0.096610, 0.204389, -0.058882, -0.064723, 
-0.117789, 0.129697, 0.086335, 0.322537, 0.131588, 0.083612, 0.020197, 0.190394, 0.125164, 0.042254, 
0.100085, 0.311967, 0.242016, 0.067925, 0.064123, 0.169193, 0.072006, -0.036633, 0.230499, 0.158001, 
0.273401, 0.100025, 0.144593, 0.231879, 0.005880, 0.038165, -0.080510, 0.096405, -0.037379, 0.119181, 
0.175063, 0.101554, 0.135274, -0.016056, 0.162133, -0.000574, 0.028892, -0.313499, -0.156197, -0.139893, 
0.166266, -0.303132, -0.023260, 0.047074, -0.092060, 0.211112, -0.058638, 0.108731, -0.025590, -0.134494, 
0.017392, 0.075565, -0.171521, -0.032312, -0.072895, 0.044721, 0.005362, 0.031548, -0.000081, -0.030822, 
-0.200168, -0.349838, -0.349253, -0.487339, -0.654400, -0.380019, -0.463112, -0.266213, 0.034742, -0.155105, 
-0.172859, -0.158756, -0.130011, -0.059473, -0.232532, -0.345629, -0.306905, -0.211220, 0.163283, -0.034760, 
-0.124629, -0.099711, -0.031949, 0.080461, -0.063847, -0.034951, -0.224991, -0.528481, -0.782646, -0.947963, 
-0.775347, -0.689266, -0.460683, -0.476280, -0.307448, -0.277258, 0.296111, -0.076952, -0.219796, -0.140168, 
-0.018023, 0.064096, -0.152461, -0.325787, -0.398181, -0.484421, -0.256511, 0.038938, 0.142694, 0.184588, 
-0.081227, -0.067187, -0.130143, -0.132012, -0.344569, -0.852244, -0.991104, -0.784452, -0.255240, -0.181220, 
-0.181508, -0.132500, -0.106404, 0.328711, 0.238672, 0.027592, 0.073053, 0.079641, -0.120499, -0.058605, 
-0.006143, -0.358869, -0.420567, -0.469793, 0.054465, 0.231108, 0.197578, -0.126942, 0.005805, -0.003777, 
-0.139914, -0.125198, -0.316307, -0.749280, -0.495916, -0.411369, -0.270599, -0.179854, -0.077648, -0.116364, 
-0.073475, 0.409279, 0.262680, 0.145386, -0.089616, -0.179954, 0.056365, -0.134676, -0.288843, -0.088703, 
-0.213270, -0.436722, -0.119238, 0.167655, 0.078740, 0.007560, -0.052388, -0.074914, -0.042877, 0.058792, 
0.165000, -0.448814, -0.231659, -0.304455, -0.233981, -0.100052, -0.348472, -0.066485, -0.082715, 0.404957, 
0.178582, 0.082590, 0.021983, -0.248106, -0.083636, -0.075451, -0.014398, -0.089864, -0.181230, -0.174424, 
0.057694, 0.297275, 0.225576, -0.047725, -0.035125, -0.103743, -0.069128, 0.127164, 0.307404, -0.160331, 
-0.132123, -0.270781, -0.397603, -0.195517, -0.054834, -0.186768, 0.167614, 0.218624, 0.245225, -0.020476, 
0.070604, 0.193242, 0.072879, 0.063431, -0.042916, 0.157451, 0.047834, 0.162863, 0.465760, 0.415573, 
0.259948, -0.010747, -0.091289, -0.082043, 0.036348, 0.505259, 0.494456, 0.281693, 0.328178, 0.045195, 
-0.219449, 0.029846, -0.004371, -0.253408, 0.051057, 0.137387, 0.120632, 0.174839, 0.046054, -0.299441, 
0.029056, -0.023919, 0.040749, 0.234680, 0.042288, 0.225937, 0.511359, 0.397363, 0.233765, 0.104466, 
-0.082447, 0.035919, -0.040210, 0.224585, 0.310678, 0.237505, 0.294860, 0.427727, 0.073485, -0.012578, 
0.055609, -0.076968, 0.048665, -0.058148, 0.094963, 0.077023, -0.088210, 0.058000, 0.093007, 0.187651, 
-0.038308, -0.044760, 0.200176, 0.334574, 0.437538, 0.178954, 0.079247, -0.032882, -0.062499, -0.064645, 
0.042130, 0.128464, 0.218293, 0.284685, 0.192286, 0.111368, 0.138668, 0.406325, 0.005569, -0.213345, 
-0.181583, -0.090598, -0.069318, 0.102628, 0.119825, 0.251519, 0.149088, 0.049579, 0.059890, -0.007319, 
0.364651, 0.414334, 0.267889, 0.158922, 0.154850, 0.274734, -0.020828, 0.012681, 0.076476, 0.005058, 
0.201195, 0.260326, 0.453744, 0.474383, 0.443862, 0.180666, 0.272042, 0.253908, -0.081601, -0.135305, 
-0.294640, -0.117531, -0.062460, -0.173201, 0.131106, 0.027977, 0.204437, 0.220104, 0.157300, 0.183104, 
0.308483, 0.070190, 0.026563, -0.107837, 0.030322, 0.014738, 0.234372, -0.094603, 0.177800, 0.227124, 
0.359700, 0.332159, 0.132574, -0.051637, -0.147096, -0.126284, -0.271838, -0.060189, 0.023593, -0.252367, 
-0.077376, 0.001572, -0.010939, 0.018607, 0.000168, 0.117620, 0.205819, 0.316546, 0.080932, 0.016237, 
-0.138279, 0.080831, 0.129463, 0.170720, 0.065399, 0.068511, 0.138666, 0.154612, 0.151404, 0.118926, 
0.004764, -0.025381, 0.094933, 0.032593, -0.117597, -0.025026, -0.110063, -0.004477, -0.081002, -0.154106, 
0.022278, -0.005757, 0.082727, 0.103765, 0.040177, 0.021972, 0.039676, 0.085517, -0.073069, 0.074745, 
-0.269078, -0.076367, -0.103913, -0.025515, 0.194294, 0.149597, 0.026396, -0.139427, -0.153239, -0.002361, 
-0.018527, 0.018430, 0.006297, 0.226317, -0.125605, -0.065529, 0.185544, -0.148467, -0.038764, -0.047986, 
-0.014232, -0.233621, 0.116875, -0.182362, 0.104882, -0.076469, -0.042594, -0.002899, -0.133184, -0.079994, 
-0.005037, 0.071861, 0.084559, 0.039544, -0.054545, 0.078854, -0.066687, 0.016213, -0.149785, 0.079440, 
0.024745, -0.134390, 0.300036, -0.038669, -0.058156, 0.021708, 0.089708, 0.095334, -0.250249, 0.099620, 
-0.152946, -0.084690, 0.128527, 0.052256, -0.097757, -0.177795, 0.049702, -0.058293, -0.001619, -0.023332, 
-0.125632, 0.010218, -0.043548, -0.264810, -0.199021, 0.145176, -0.086610, -0.049082, 0.080820, 0.029860, 
-0.123108, -0.105208, -0.010942, -0.139003, -0.058243, -0.002104, -0.183871, -0.182152, -0.101428, 0.002277, 
0.066822, 0.079189, -0.154425, 0.005728, -0.136393, 0.132251, 0.009206, -0.191723, -0.038361, -0.187494, 
-0.044710, 0.064990, -0.119637, -0.169461, -0.162499, -0.078343, -0.286236, -0.202189, -0.315091, -0.061669, 
-0.077693, -0.076698, -0.089109, -0.021932, -0.234852, -0.236007, 0.063055, -0.025340, 0.254083, 0.019869, 
-0.050406, 0.040825, 0.151787, 0.139279, -0.007687, 0.068679, -0.085377, -0.004841, 0.162971, -0.243216, 
-0.018244, 0.152713, 0.128655, -0.010238, 0.057973, 0.097100, -0.113641, 0.118663, 0.209906, -0.003275, 
-0.049274, 0.043294, -0.002127, 0.052804, -0.142798, -0.073125, 0.236479, 0.103006, 0.066522, -0.040222
};

Weights from hidden to output layer (v):
{-0.604602, -0.042122, 2.519321, -1.847367, 2.471944, 2.595165, -3.982546, 2.239195, -3.638235, -2.697001, 
-2.487263, 3.357904, -3.014200, 2.735948, -2.347028, -3.712839, 0.285576, -0.392856, 2.859187, 2.622463, 
0.978414, -2.378294, 2.059030, 1.146646, -2.165601, 1.380268, -4.059659, 0.730601, 0.947403, 4.228122, 
-1.705632, 3.152541, 3.677217, -2.436239, -0.713428, -0.728951, 1.399353, -1.368199, 0.384296, 2.055252, 
3.616416, -1.646095, -1.257409, -3.128097, -2.143511, 1.540319, 1.186985, -1.816624, 2.683678, -2.980868, 
-1.469766, 0.827662, -2.300757, -2.702448, 1.427662, -1.117143, 2.728717, 5.169797, 0.465817, 1.180249, 
0.692549, 0.123323, -2.499319, 1.813155, 1.703934, 1.445287, -5.503111, 0.090093, 3.406281, -2.774013, 
3.457511, -1.986946, 2.909220, 0.920215, 0.802808, -5.030635, 2.734392, 0.236120, -1.774704, 0.271455, 
-4.460215, -3.046532, -2.564954, 1.737733, 2.085340, 2.502400, 2.253510, -2.687994, -1.197513, 1.670731, 
2.027260, 1.148331, 0.864693, 1.667621, -1.791647, 1.491605, 2.829762, -2.721224, -3.968487, -3.497995
};
